{"learner":{"attributes":{"scikit_learn":"{\"_estimator_type\": \"regressor\"}"},"feature_names":["dayofyear","hour","dayofweek","quarter","month","year","lag1","lag2","lag3"],"feature_types":["int","int","int","int","int","int","float","float","float"],"gradient_booster":{"model":{"gbtree_model_param":{"num_parallel_tree":"1","num_trees":"955"},"iteration_indptr":[0,1,2,3,4,5,6,7,8,9,10,11,12,13,14,15,16,17,18,19,20,21,22,23,24,25,26,27,28,29,30,31,32,33,34,35,36,37,38,39,40,41,42,43,44,45,46,47,48,49,50,51,52,53,54,55,56,57,58,59,60,61,62,63,64,65,66,67,68,69,70,71,72,73,74,75,76,77,78,79,80,81,82,83,84,85,86,87,88,89,90,91,92,93,94,95,96,97,98,99,100,101,102,103,104,105,106,107,108,109,110,111,112,113,114,115,116,117,118,119,120,121,122,123,124,125,126,127,128,129,130,131,132,133,134,135,136,137,138,139,140,141,142,143,144,145,146,147,148,149,150,151,152,153,154,155,156,157,158,159,160,161,162,163,164,165,166,167,168,169,170,171,172,173,174,175,176,177,178,179,180,181,182,183,184,185,186,187,188,189,190,191,192,193,194,195,196,197,198,199,200,201,202,203,204,205,206,207,208,209,210,211,212,213,214,215,216,217,218,219,220,221,222,223,224,225,226,227,228,229,230,231,232,233,234,235,236,237,238,239,240,241,242,243,244,245,246,247,248,249,250,251,252,253,254,255,256,257,258,259,260,261,262,263,264,265,266,267,268,269,270,271,272,273,274,275,276,277,278,279,280,281,282,283,284,285,286,287,288,289,290,291,292,293,294,295,296,297,298,299,300,301,302,303,304,305,306,307,308,309,310,311,312,313,314,315,316,317,318,319,320,321,322,323,324,325,326,327,328,329,330,331,332,333,334,335,336,337,338,339,340,341,342,343,344,345,346,347,348,349,350,351,352,353,354,355,356,357,358,359,360,361,362,363,364,365,366,367,368,369,370,371,372,373,374,375,376,377,378,379,380,381,382,383,384,385,386,387,388,389,390,391,392,393,394,395,396,397,398,399,400,401,402,403,404,405,406,407,408,409,410,411,412,413,414,415,416,417,418,419,420,421,422,423,424,425,426,427,428,429,430,431,432,433,434,435,436,437,438,439,440,441,442,443,444,445,446,447,448,449,450,451,452,453,454,455,456,457,458,459,460,461,462,463,464,465,466,467,468,469,470,471,472,473,474,475,476,477,478,479,480,481,482,483,484,485,486,487,488,489,490,491,492,493,494,495,496,497,498,499,500,501,502,503,504,505,506,507,508,509,510,511,512,513,514,515,516,517,518,519,520,521,522,523,524,525,526,527,528,529,530,531,532,533,534,535,536,537,538,539,540,541,542,543,544,545,546,547,548,549,550,551,552,553,554,555,556,557,558,559,560,561,562,563,564,565,566,567,568,569,570,571,572,573,574,575,576,577,578,579,580,581,582,583,584,585,586,587,588,589,590,591,592,593,594,595,596,597,598,599,600,601,602,603,604,605,606,607,608,609,610,611,612,613,614,615,616,617,618,619,620,621,622,623,624,625,626,627,628,629,630,631,632,633,634,635,636,637,638,639,640,641,642,643,644,645,646,647,648,649,650,651,652,653,654,655,656,657,658,659,660,661,662,663,664,665,666,667,668,669,670,671,672,673,674,675,676,677,678,679,680,681,682,683,684,685,686,687,688,689,690,691,692,693,694,695,696,697,698,699,700,701,702,703,704,705,706,707,708,709,710,711,712,713,714,715,716,717,718,719,720,721,722,723,724,725,726,727,728,729,730,731,732,733,734,735,736,737,738,739,740,741,742,743,744,745,746,747,748,749,750,751,752,753,754,755,756,757,758,759,760,761,762,763,764,765,766,767,768,769,770,771,772,773,774,775,776,777,778,779,780,781,782,783,784,785,786,787,788,789,790,791,792,793,794,795,796,797,798,799,800,801,802,803,804,805,806,807,808,809,810,811,812,813,814,815,816,817,818,819,820,821,822,823,824,825,826,827,828,829,830,831,832,833,834,835,836,837,838,839,840,841,842,843,844,845,846,847,848,849,850,851,852,853,854,855,856,857,858,859,860,861,862,863,864,865,866,867,868,869,870,871,872,873,874,875,876,877,878,879,880,881,882,883,884,885,886,887,888,889,890,891,892,893,894,895,896,897,898,899,900,901,902,903,904,905,906,907,908,909,910,911,912,913,914,915,916,917,918,919,920,921,922,923,924,925,926,927,928,929,930,931,932,933,934,935,936,937,938,939,940,941,942,943,944,945,946,947,948,949,950,951,952,953,954,955],"tree_info":[0,0,0,0,0,0,0,0,0,0,0,0,0,0,0,0,0,0,0,0,0,0,0,0,0,0,0,0,0,0,0,0,0,0,0,0,0,0,0,0,0,0,0,0,0,0,0,0,0,0,0,0,0,0,0,0,0,0,0,0,0,0,0,0,0,0,0,0,0,0,0,0,0,0,0,0,0,0,0,0,0,0,0,0,0,0,0,0,0,0,0,0,0,0,0,0,0,0,0,0,0,0,0,0,0,0,0,0,0,0,0,0,0,0,0,0,0,0,0,0,0,0,0,0,0,0,0,0,0,0,0,0,0,0,0,0,0,0,0,0,0,0,0,0,0,0,0,0,0,0,0,0,0,0,0,0,0,0,0,0,0,0,0,0,0,0,0,0,0,0,0,0,0,0,0,0,0,0,0,0,0,0,0,0,0,0,0,0,0,0,0,0,0,0,0,0,0,0,0,0,0,0,0,0,0,0,0,0,0,0,0,0,0,0,0,0,0,0,0,0,0,0,0,0,0,0,0,0,0,0,0,0,0,0,0,0,0,0,0,0,0,0,0,0,0,0,0,0,0,0,0,0,0,0,0,0,0,0,0,0,0,0,0,0,0,0,0,0,0,0,0,0,0,0,0,0,0,0,0,0,0,0,0,0,0,0,0,0,0,0,0,0,0,0,0,0,0,0,0,0,0,0,0,0,0,0,0,0,0,0,0,0,0,0,0,0,0,0,0,0,0,0,0,0,0,0,0,0,0,0,0,0,0,0,0,0,0,0,0,0,0,0,0,0,0,0,0,0,0,0,0,0,0,0,0,0,0,0,0,0,0,0,0,0,0,0,0,0,0,0,0,0,0,0,0,0,0,0,0,0,0,0,0,0,0,0,0,0,0,0,0,0,0,0,0,0,0,0,0,0,0,0,0,0,0,0,0,0,0,0,0,0,0,0,0,0,0,0,0,0,0,0,0,0,0,0,0,0,0,0,0,0,0,0,0,0,0,0,0,0,0,0,0,0,0,0,0,0,0,0,0,0,0,0,0,0,0,0,0,0,0,0,0,0,0,0,0,0,0,0,0,0,0,0,0,0,0,0,0,0,0,0,0,0,0,0,0,0,0,0,0,0,0,0,0,0,0,0,0,0,0,0,0,0,0,0,0,0,0,0,0,0,0,0,0,0,0,0,0,0,0,0,0,0,0,0,0,0,0,0,0,0,0,0,0,0,0,0,0,0,0,0,0,0,0,0,0,0,0,0,0,0,0,0,0,0,0,0,0,0,0,0,0,0,0,0,0,0,0,0,0,0,0,0,0,0,0,0,0,0,0,0,0,0,0,0,0,0,0,0,0,0,0,0,0,0,0,0,0,0,0,0,0,0,0,0,0,0,0,0,0,0,0,0,0,0,0,0,0,0,0,0,0,0,0,0,0,0,0,0,0,0,0,0,0,0,0,0,0,0,0,0,0,0,0,0,0,0,0,0,0,0,0,0,0,0,0,0,0,0,0,0,0,0,0,0,0,0,0,0,0,0,0,0,0,0,0,0,0,0,0,0,0,0,0,0,0,0,0,0,0,0,0,0,0,0,0,0,0,0,0,0,0,0,0,0,0,0,0,0,0,0,0,0,0,0,0,0,0,0,0,0,0,0,0,0,0,0,0,0,0,0,0,0,0,0,0,0,0,0,0,0,0,0,0,0,0,0,0,0,0,0,0,0,0,0,0,0,0,0,0,0,0,0,0,0,0,0,0,0,0,0,0,0,0,0,0,0,0,0,0,0,0,0,0,0,0,0,0,0,0,0,0,0,0,0,0,0,0,0,0,0,0,0,0,0,0,0,0,0,0,0,0,0,0,0,0,0,0,0,0,0,0,0,0,0,0,0,0,0,0,0,0,0,0,0,0,0,0,0,0,0,0,0,0,0,0,0,0,0,0,0,0,0,0,0,0,0,0,0,0,0,0,0,0,0,0,0,0,0,0,0,0,0,0,0,0,0,0,0,0,0,0,0,0,0,0,0,0,0,0,0,0,0,0,0,0,0,0,0,0,0,0,0,0,0,0,0,0,0,0,0,0,0,0,0,0,0,0,0,0,0,0,0,0,0,0,0,0,0,0,0,0,0,0,0,0,0,0,0,0,0,0,0,0,0,0,0,0,0,0,0,0,0,0],"trees":[{"base_weights":[3.208109E4,2.8807773E4,3.6632035E4,2.5536281E4,3.074942E4,3.50719E4,4.0995746E4,2.372889E2,2.6775516E2,2.8517535E2,3.183721E2,3.3796268E2,3.7208377E2,3.7093777E2,4.2216507E2],"categories":[],"categories_nodes":[],"categories_segments":[],"categories_sizes":[],"default_left":[1,0,0,0,0,1,0,0,0,0,0,0,0,0,0],"id":0,"left_children":[1,3,5,7,9,11,13,-1,-1,-1,-1,-1,-1,-1,-1],"loss_changes":[2.1642105E12,5.3627113E11,4.125182E11,6.990856E10,1.2789691E11,1.208337E11,7.468797E10,0E0,0E0,0E0,0E0,0E0,0E0,0E0,0E0],"parents":[2147483647,0,0,1,1,2,2,3,3,4,4,5,5,6,6],"right_children":[2,4,6,8,10,12,14,-1,-1,-1,-1,-1,-1,-1,-1],"split_conditions":[3.2223E4,2.7232E4,3.981E4,2.3995E4,8E0,3.5699E4,1.67E2,2.372889E2,2.6775516E2,2.8517535E2,3.183721E2,3.3796268E2,3.7208377E2,3.7093777E2,4.2216507E2],"split_indices":[6,6,6,6,1,7,0,0,0,0,0,0,0,0,0],"split_type":[0,0,0,0,0,0,0,0,0,0,0,0,0,0,0],"sum_hessian":[1.45351E5,8.4547E4,6.0804E4,3.1495E4,5.3052E4,4.4797E4,1.6007E4,1.2819E4,1.8676E4,1.7393E4,3.5659E4,2.806E4,1.6737E4,3.822E3,1.2185E4],"tree_param":{"num_deleted":"0","num_feature":"9","num_nodes":"15","size_leaf_vector":"1"}},{"base_weights":[3.1760297E4,2.8519709E4,3.626574E4,2.5280934E4,3.0441938E4,3.47212E4,4.0585836E4,2.3610478E2,2.6596457E2,2.8232373E2,3.1518848E2,3.3594745E2,3.711339E2,3.6722937E2,4.179438E2],"categories":[],"categories_nodes":[],"categories_segments":[],"categories_sizes":[],"default_left":[1,0,0,0,0,1,0,0,0,0,0,0,0,0,0],"id":1,"left_children":[1,3,5,7,9,11,13,-1,-1,-1,-1,-1,-1,-1,-1],"loss_changes":[2.1211434E12,5.2559662E11,4.0431413E11,6.858316E10,1.2535097E11,1.19470555E11,7.319899E10,0E0,0E0,0E0,0E0,0E0,0E0,0E0,0E0],"parents":[2147483647,0,0,1,1,2,2,3,3,4,4,5,5,6,6],"right_children":[2,4,6,8,10,12,14,-1,-1,-1,-1,-1,-1,-1,-1],"split_conditions":[3.2223E4,2.7232E4,3.981E4,2.4213E4,8E0,3.6071E4,1.67E2,2.3610478E2,2.6596457E2,2.8232373E2,3.1518848E2,3.3594745E2,3.711339E2,3.6722937E2,4.179438E2],"split_indices":[6,6,6,6,1,8,0,0,0,0,0,0,0,0,0],"split_type":[0,0,0,0,0,0,0,0,0,0,0,0,0,0,0],"sum_hessian":[1.45351E5,8.4547E4,6.0804E4,3.1495E4,5.3052E4,4.4797E4,1.6007E4,1.3884E4,1.7611E4,1.7393E4,3.5659E4,3.0466E4,1.4331E4,3.822E3,1.2185E4],"tree_param":{"num_deleted":"0","num_feature":"9","num_nodes":"15","size_leaf_vector":"1"}},{"base_weights":[3.144271E4,2.8234525E4,3.5903105E4,2.502814E4,3.0137527E4,3.4374E4,4.0180027E4,2.3314938E2,2.6285785E2,2.7950067E2,3.1203668E2,3.3115988E2,3.6480984E2,3.63558E2,4.1376468E2],"categories":[],"categories_nodes":[],"categories_segments":[],"categories_sizes":[],"default_left":[1,0,0,0,0,1,0,0,0,0,0,0,0,0,0],"id":2,"left_children":[1,3,5,7,9,11,13,-1,-1,-1,-1,-1,-1,-1,-1],"loss_changes":[2.0789487E12,5.1513603E11,3.9626945E11,6.7247276E10,1.2285536E11,1.1752859E11,7.174147E10,0E0,0E0,0E0,0E0,0E0,0E0,0E0,0E0],"parents":[2147483647,0,0,1,1,2,2,3,3,4,4,5,5,6,6],"right_children":[2,4,6,8,10,12,14,-1,-1,-1,-1,-1,-1,-1,-1],"split_conditions":[3.2223E4,2.7232E4,3.981E4,2.4102E4,8E0,3.5699E4,1.67E2,2.3314938E2,2.6285785E2,2.7950067E2,3.1203668E2,3.3115988E2,3.6480984E2,3.63558E2,4.1376468E2],"split_indices":[6,6,6,6,1,7,0,0,0,0,0,0,0,0,0],"split_type":[0,0,0,0,0,0,0,0,0,0,0,0,0,0,0],"sum_hessian":[1.45351E5,8.4547E4,6.0804E4,3.1495E4,5.3052E4,4.4797E4,1.6007E4,1.3341E4,1.8154E4,1.7393E4,3.5659E4,2.806E4,1.6737E4,3.822E3,1.2185E4],"tree_param":{"num_deleted":"0","num_feature":"9","num_nodes":"15","size_leaf_vector":"1"}},{"base_weights":[3.1128303E4,2.7952193E4,3.5544098E4,2.4598645E4,2.9736205E4,3.4030277E4,3.9778273E4,2.2922054E2,2.5757394E2,2.761793E2,3.0813818E2,3.2983093E2,3.6533167E2,3.599234E2,4.0962738E2],"categories":[],"categories_nodes":[],"categories_segments":[],"categories_sizes":[],"default_left":[1,0,0,0,0,1,0,0,0,0,0,0,0,0,0],"id":3,"left_children":[1,3,5,7,9,11,13,-1,-1,-1,-1,-1,-1,-1,-1],"loss_changes":[2.0375761E12,5.0509906E11,3.8839255E11,5.6459526E10,1.2512028E11,1.1620739E11,7.0311215E10,0E0,0E0,0E0,0E0,0E0,0E0,0E0,0E0],"parents":[2147483647,0,0,1,1,2,2,3,3,4,4,5,5,6,6],"right_children":[2,4,6,8,10,12,14,-1,-1,-1,-1,-1,-1,-1,-1],"split_conditions":[3.2223E4,2.6924E4,3.981E4,2.4482E4,8E0,3.644E4,1.67E2,2.2922054E2,2.5757394E2,2.761793E2,3.0813818E2,3.2983093E2,3.6533167E2,3.599234E2,4.0962738E2],"split_indices":[6,6,6,7,1,8,0,0,0,0,0,0,0,0,0],"split_type":[0,0,0,0,0,0,0,0,0,0,0,0,0,0,0],"sum_hessian":[1.45351E5,8.4547E4,6.0804E4,2.9364E4,5.5183E4,4.4797E4,1.6007E4,1.2009E4,1.7355E4,1.8616E4,3.6567E4,3.1593E4,1.3204E4,3.822E3,1.2185E4],"tree_param":{"num_deleted":"0","num_feature":"9","num_nodes":"15","size_leaf_vector":"1"}},{"base_weights":[3.0817037E4,2.7717637E4,3.5252195E4,2.465278E4,2.9650203E4,3.374191E4,3.9380543E4,2.2955804E2,2.596075E2,2.7452756E2,3.0670654E2,3.2495157E2,3.5784375E2,3.563251E2,4.0553143E2],"categories":[],"categories_nodes":[],"categories_segments":[],"categories_sizes":[],"default_left":[1,0,0,0,0,1,0,0,0,0,0,0,0,0,0],"id":4,"left_children":[1,3,5,7,9,11,13,-1,-1,-1,-1,-1,-1,-1,-1],"loss_changes":[1.9970843E12,5.0608053E11,3.7144756E11,7.286135E10,1.1681556E11,1.1032697E11,6.890822E10,0E0,0E0,0E0,0E0,0E0,0E0,0E0,0E0],"parents":[2147483647,0,0,1,1,2,2,3,3,4,4,5,5,6,6],"right_children":[2,4,6,8,10,12,14,-1,-1,-1,-1,-1,-1,-1,-1],"split_conditions":[3.2327E4,2.7474E4,3.981E4,2.4322E4,8E0,3.5699E4,1.67E2,2.2955804E2,2.596075E2,2.7452756E2,3.0670654E2,3.2495157E2,3.5784375E2,3.563251E2,4.0553143E2],"split_indices":[6,6,6,6,1,7,0,0,0,0,0,0,0,0,0],"split_type":[0,0,0,0,0,0,0,0,0,0,0,0,0,0,0],"sum_hessian":[1.45351E5,8.5564E4,5.9787E4,3.3094E4,5.247E4,4.378E4,1.6007E4,1.4413E4,1.8681E4,1.6648E4,3.5822E4,2.7196E4,1.6584E4,3.822E3,1.2185E4],"tree_param":{"num_deleted":"0","num_feature":"9","num_nodes":"15","size_leaf_vector":"1"}},{"base_weights":[3.0508885E4,2.7622543E4,3.517743E4,2.4406266E4,2.9498326E4,3.363356E4,3.8986785E4,2.2726262E2,2.5701157E2,2.725193E2,3.0491766E2,3.1742526E2,3.4919244E2,3.5276282E2,4.0147647E2],"categories":[],"categories_nodes":[],"categories_segments":[],"categories_sizes":[],"default_left":[1,0,0,0,0,0,0,0,0,0,0,0,0,0,0],"id":5,"left_children":[1,3,5,7,9,11,13,-1,-1,-1,-1,-1,-1,-1,-1],"loss_changes":[1.9576494E12,5.4119105E11,3.252599E11,7.141432E10,1.2577879E11,9.497582E10,6.7536683E10,0E0,0E0,0E0,0E0,0E0,0E0,0E0,0E0],"parents":[2147483647,0,0,1,1,2,2,3,3,4,4,5,5,6,6],"right_children":[2,4,6,8,10,12,14,-1,-1,-1,-1,-1,-1,-1,-1],"split_conditions":[3.2794E4,2.7474E4,3.981E4,2.4322E4,8E0,3.4388E4,1.67E2,2.2726262E2,2.5701157E2,2.725193E2,3.0491766E2,3.1742526E2,3.4919244E2,3.5276282E2,4.0147647E2],"split_indices":[6,6,6,6,1,8,0,0,0,0,0,0,0,0,0],"split_type":[0,0,0,0,0,0,0,0,0,0,0,0,0,0,0],"sum_hessian":[1.45351E5,8.9824E4,5.5527E4,3.3094E4,5.673E4,3.952E4,1.6007E4,1.4413E4,1.8681E4,1.7404E4,3.9326E4,1.6005E4,2.3515E4,3.822E3,1.2185E4],"tree_param":{"num_deleted":"0","num_feature":"9","num_nodes":"15","size_leaf_vector":"1"}},{"base_weights":[3.0203812E4,2.7048086E4,3.4390824E4,2.3865424E4,2.8793691E4,3.2940777E4,3.8596965E4,2.2220905E2,2.5002023E2,2.6763727E2,2.984704E2,3.1843588E2,3.527421E2,3.5148938E2,3.9822794E2],"categories":[],"categories_nodes":[],"categories_segments":[],"categories_sizes":[],"default_left":[1,0,0,0,0,1,0,0,0,0,0,0,0,0,0],"id":6,"left_children":[1,3,5,7,9,11,13,-1,-1,-1,-1,-1,-1,-1,-1],"loss_changes":[1.9196155E12,4.5981735E11,3.7970195E11,5.4331965E10,1.1364886E11,1.1782219E11,6.6261615E10,0E0,0E0,0E0,0E0,0E0,0E0,0E0,0E0],"parents":[2147483647,0,0,1,1,2,2,3,3,4,4,5,5,6,6],"right_children":[2,4,6,8,10,12,14,-1,-1,-1,-1,-1,-1,-1,-1],"split_conditions":[3.2059E4,2.6924E4,3.981E4,2.4482E4,8E0,3.5975E4,1.72E2,2.2220905E2,2.5002023E2,2.6763727E2,2.984704E2,3.1843588E2,3.527421E2,3.5148938E2,3.9822794E2],"split_indices":[6,6,6,7,1,8,0,0,0,0,0,0,0,0,0],"split_type":[0,0,0,0,0,0,0,0,0,0,0,0,0,0,0],"sum_hessian":[1.45351E5,8.2887E4,6.2464E4,2.9364E4,5.3523E4,4.6457E4,1.6007E4,1.2009E4,1.7355E4,1.8294E4,3.5229E4,3.1609E4,1.4848E4,4.206E3,1.1801E4],"tree_param":{"num_deleted":"0","num_feature":"9","num_nodes":"15","size_leaf_vector":"1"}},{"base_weights":[2.9901791E4,2.7071732E4,3.4479305E4,2.4035045E4,2.8981568E4,3.296689E4,3.821104E4,2.2371701E2,2.5375241E2,2.6742325E2,2.9938507E2,3.1106705E2,3.423161E2,3.457221E2,3.9349478E2],"categories":[],"categories_nodes":[],"categories_segments":[],"categories_sizes":[],"default_left":[1,0,0,0,0,0,0,0,0,0,0,0,0,0,0],"id":7,"left_children":[1,3,5,7,9,11,13,-1,-1,-1,-1,-1,-1,-1,-1],"loss_changes":[1.8820429E12,5.2025308E11,3.121359E11,7.675786E10,1.1734824E11,9.190978E10,6.495509E10,0E0,0E0,0E0,0E0,0E0,0E0,0E0,0E0],"parents":[2147483647,0,0,1,1,2,2,3,3,4,4,5,5,6,6],"right_children":[2,4,6,8,10,12,14,-1,-1,-1,-1,-1,-1,-1,-1],"split_conditions":[3.2794E4,2.7696E4,3.981E4,2.4541E4,8E0,3.4388E4,1.67E2,2.2371701E2,2.5375241E2,2.6742325E2,2.9938507E2,3.1106705E2,3.423161E2,3.457221E2,3.9349478E2],"split_indices":[6,6,6,6,1,8,0,0,0,0,0,0,0,0,0],"split_type":[0,0,0,0,0,0,0,0,0,0,0,0,0,0,0],"sum_hessian":[1.45351E5,8.9824E4,5.5527E4,3.4686E4,5.5138E4,3.952E4,1.6007E4,1.5485E4,1.9201E4,1.6517E4,3.8621E4,1.6005E4,2.3515E4,3.822E3,1.2185E4],"tree_param":{"num_deleted":"0","num_feature":"9","num_nodes":"15","size_leaf_vector":"1"}},{"base_weights":[2.960279E4,2.6580262E4,3.380506E4,2.338888E4,2.8278006E4,3.236641E4,3.7828977E4,2.1768445E2,2.4508841E2,2.6264514E2,2.9302313E2,3.1151428E2,3.4401373E2,3.444753E2,3.9031137E2],"categories":[],"categories_nodes":[],"categories_segments":[],"categories_sizes":[],"default_left":[1,0,0,0,0,1,0,0,0,0,0,0,0,0,0],"id":8,"left_children":[1,3,5,7,9,11,13,-1,-1,-1,-1,-1,-1,-1,-1],"loss_changes":[1.8452924E12,4.574308E11,3.5077803E11,5.27591E10,1.1304069E11,1.0968944E11,6.3726158E10,0E0,0E0,0E0,0E0,0E0,0E0,0E0,0E0],"parents":[2147483647,0,0,1,1,2,2,3,3,4,4,5,5,6,6],"right_children":[2,4,6,8,10,12,14,-1,-1,-1,-1,-1,-1,-1,-1],"split_conditions":[3.2223E4,2.6924E4,3.981E4,2.4482E4,8E0,3.5699E4,1.72E2,2.1768445E2,2.4508841E2,2.6264514E2,2.9302313E2,3.1151428E2,3.4401373E2,3.444753E2,3.9031137E2],"split_indices":[6,6,6,7,1,7,0,0,0,0,0,0,0,0,0],"split_type":[0,0,0,0,0,0,0,0,0,0,0,0,0,0,0],"sum_hessian":[1.45351E5,8.4547E4,6.0804E4,2.9364E4,5.5183E4,4.4797E4,1.6007E4,1.2009E4,1.7355E4,1.8616E4,3.6567E4,2.806E4,1.6737E4,4.206E3,1.1801E4],"tree_param":{"num_deleted":"0","num_feature":"9","num_nodes":"15","size_leaf_vector":"1"}},{"base_weights":[2.9306777E4,2.6532219E4,3.3794523E4,2.355441E4,2.8405023E4,3.24864E4,3.800308E4,2.1919527E2,2.4871681E2,2.6209375E2,2.9343332E2,3.1408878E2,3.4741803E2,3.451737E2,3.9237393E2],"categories":[],"categories_nodes":[],"categories_segments":[],"categories_sizes":[],"default_left":[1,0,1,0,0,0,0,0,0,0,0,0,0,0,0],"id":9,"left_children":[1,3,5,7,9,11,13,-1,-1,-1,-1,-1,-1,-1,-1],"loss_changes":[1.8089614E12,5.002714E11,3.0446453E11,7.4155295E10,1.1282678E11,1.0187545E11,5.527044E10,0E0,0E0,0E0,0E0,0E0,0E0,0E0,0E0],"parents":[2147483647,0,0,1,1,2,2,3,3,4,4,5,5,6,6],"right_children":[2,4,6,8,10,12,14,-1,-1,-1,-1,-1,-1,-1,-1],"split_conditions":[3.2794E4,2.7696E4,3.9742E4,2.4541E4,8E0,3.7924E4,1.72E2,2.1919527E2,2.4871681E2,2.6209375E2,2.9343332E2,3.1408878E2,3.4741803E2,3.451737E2,3.9237393E2],"split_indices":[6,6,8,6,1,6,0,0,0,0,0,0,0,0,0],"split_type":[0,0,0,0,0,0,0,0,0,0,0,0,0,0,0],"sum_hessian":[1.45351E5,8.9824E4,5.5527E4,3.4686E4,5.5138E4,4.2367E4,1.316E4,1.5485E4,1.9201E4,1.6517E4,3.8621E4,2.868E4,1.3687E4,3.449E3,9.711E3],"tree_param":{"num_deleted":"0","num_feature":"9","num_nodes":"15","size_leaf_vector":"1"}},{"base_weights":[2.9013727E4,2.5980035E4,3.303882E4,2.2921867E4,2.7657361E4,3.1611305E4,3.6996004E4,2.174115E2,2.4420757E2,2.570846E2,2.8668643E2,3.0331134E2,3.350413E2,3.5248633E2,3.927802E2],"categories":[],"categories_nodes":[],"categories_segments":[],"categories_sizes":[],"default_left":[1,0,0,1,0,1,1,0,0,0,0,0,0,0,0],"id":10,"left_children":[1,3,5,7,9,11,13,-1,-1,-1,-1,-1,-1,-1,-1],"loss_changes":[1.7740312E12,4.2453906E11,3.516924E11,5.1437896E10,1.0475274E11,1.102305E11,6.4625836E10,0E0,0E0,0E0,0E0,0E0,0E0,0E0,0E0],"parents":[2147483647,0,0,1,1,2,2,3,3,4,4,5,5,6,6],"right_children":[2,4,6,8,10,12,14,-1,-1,-1,-1,-1,-1,-1,-1],"split_conditions":[3.2059E4,2.6924E4,3.9637E4,2.5128E4,8E0,3.5193E4,4.0283E4,2.174115E2,2.4420757E2,2.570846E2,2.8668643E2,3.0331134E2,3.350413E2,3.5248633E2,3.927802E2],"split_indices":[6,6,6,7,1,7,8,0,0,0,0,0,0,0,0],"split_type":[0,0,0,0,0,0,0,0,0,0,0,0,0,0,0],"sum_hessian":[1.45351E5,8.2887E4,6.2464E4,2.9364E4,5.3523E4,4.5911E4,1.6553E4,1.6434E4,1.293E4,1.8294E4,3.5229E4,2.7398E4,1.8513E4,9.384E3,7.169E3],"tree_param":{"num_deleted":"0","num_feature":"9","num_nodes":"15","size_leaf_vector":"1"}},{"base_weights":[2.8723607E4,2.6003281E4,3.312363E4,2.3155484E4,2.7886285E4,3.1838328E4,3.725877E4,2.1476291E2,2.4436966E2,2.570853E2,2.8800375E2,3.104938E2,3.48122E2,3.3826495E2,3.8474182E2],"categories":[],"categories_nodes":[],"categories_segments":[],"categories_sizes":[],"default_left":[1,0,1,0,0,0,0,0,0,0,0,0,0,0,0],"id":11,"left_children":[1,3,5,7,9,11,13,-1,-1,-1,-1,-1,-1,-1,-1],"loss_changes":[1.7389249E12,4.8103634E11,2.9394102E11,7.642441E10,1.0688764E11,9.8322874E10,5.360111E10,0E0,0E0,0E0,0E0,0E0,0E0,0E0,0E0],"parents":[2147483647,0,0,1,1,2,2,3,3,4,4,5,5,6,6],"right_children":[2,4,6,8,10,12,14,-1,-1,-1,-1,-1,-1,-1,-1],"split_conditions":[3.2794E4,2.7842E4,3.9742E4,2.4541E4,8E0,3.9637E4,1.72E2,2.1476291E2,2.4436966E2,2.570853E2,2.8800375E2,3.104938E2,3.48122E2,3.3826495E2,3.8474182E2],"split_indices":[6,6,8,6,1,6,0,0,0,0,0,0,0,0,0],"split_type":[0,0,0,0,0,0,0,0,0,0,0,0,0,0,0],"sum_hessian":[1.45351E5,8.9824E4,5.5527E4,3.5758E4,5.4066E4,4.2367E4,1.316E4,1.5485E4,2.0273E4,1.5993E4,3.8073E4,3.3493E4,8.874E3,3.449E3,9.711E3],"tree_param":{"num_deleted":"0","num_feature":"9","num_nodes":"15","size_leaf_vector":"1"}},{"base_weights":[2.8436387E4,2.5462102E4,3.2382662E4,2.2463914E4,2.7106527E4,3.1090012E4,3.659201E4,2.0657037E2,2.3415999E2,2.5196788E2,2.8097488E2,2.9216217E2,3.2419113E2,3.499056E2,3.9201346E2],"categories":[],"categories_nodes":[],"categories_segments":[],"categories_sizes":[],"default_left":[1,0,1,0,0,0,1,0,0,0,0,0,0,0,0],"id":12,"left_children":[1,3,5,7,9,11,13,-1,-1,-1,-1,-1,-1,-1,-1],"loss_changes":[1.7052278E12,4.0805545E11,3.3874877E11,5.0032804E10,1.00583604E11,1.18086435E11,5.9930313E10,0E0,0E0,0E0,0E0,0E0,0E0,0E0,0E0],"parents":[2147483647,0,0,1,1,2,2,3,3,4,4,5,5,6,6],"right_children":[2,4,6,8,10,12,14,-1,-1,-1,-1,-1,-1,-1,-1],"split_conditions":[3.2059E4,2.6924E4,3.9671E4,2.3417E4,8E0,3.4187E4,4.2272E4,2.0657037E2,2.3415999E2,2.5196788E2,2.8097488E2,2.9216217E2,3.2419113E2,3.499056E2,3.9201346E2],"split_indices":[6,6,7,6,1,8,8,0,0,0,0,0,0,0,0],"split_type":[0,0,0,0,0,0,0,0,0,0,0,0,0,0,0],"sum_hessian":[1.45351E5,8.2887E4,6.2464E4,2.9364E4,5.3523E4,4.7795E4,1.4669E4,1.0141E4,1.9223E4,1.8294E4,3.5229E4,1.9843E4,2.7952E4,9.099E3,5.57E3],"tree_param":{"num_deleted":"0","num_feature":"9","num_nodes":"15","size_leaf_vector":"1"}},{"base_weights":[2.815204E4,2.54846E4,3.2466523E4,2.2692123E4,2.7331023E4,3.115357E4,3.638242E4,2.1045465E2,2.394878E2,2.5195657E2,2.8227322E2,2.9272238E2,3.240878E2,3.289624E2,3.7536783E2],"categories":[],"categories_nodes":[],"categories_segments":[],"categories_sizes":[],"default_left":[1,0,1,0,0,0,0,0,0,0,0,0,0,0,0],"id":13,"left_children":[1,3,5,7,9,11,13,-1,-1,-1,-1,-1,-1,-1,-1],"loss_changes":[1.671967E12,4.6253107E11,2.8435703E11,7.3492595E10,1.0276464E11,9.72701E10,5.4853108E10,0E0,0E0,0E0,0E0,0E0,0E0,0E0,0E0],"parents":[2147483647,0,0,1,1,2,2,3,3,4,4,5,5,6,6],"right_children":[2,4,6,8,10,12,14,-1,-1,-1,-1,-1,-1,-1,-1],"split_conditions":[3.2794E4,2.7842E4,3.9851E4,2.4541E4,8E0,3.4388E4,1.72E2,2.1045465E2,2.394878E2,2.5195657E2,2.8227322E2,2.9272238E2,3.240878E2,3.289624E2,3.7536783E2],"split_indices":[6,6,7,6,1,8,0,0,0,0,0,0,0,0,0],"split_type":[0,0,0,0,0,0,0,0,0,0,0,0,0,0,0],"sum_hessian":[1.45351E5,8.9824E4,5.5527E4,3.5758E4,5.4066E4,4.1591E4,1.3936E4,1.5485E4,2.0273E4,1.5993E4,3.8073E4,1.6654E4,2.4937E4,3.474E3,1.0462E4],"tree_param":{"num_deleted":"0","num_feature":"9","num_nodes":"15","size_leaf_vector":"1"}},{"base_weights":[2.7870535E4,2.4888236E4,3.1653727E4,2.2015121E4,2.6512736E4,3.028668E4,3.5575734E4,2.0861328E2,2.3479861E2,2.466672E2,2.7490533E2,2.9056796E2,3.2162555E2,3.236964E2,3.67554E2],"categories":[],"categories_nodes":[],"categories_segments":[],"categories_sizes":[],"default_left":[1,0,0,1,0,1,0,0,0,0,0,0,0,0,0],"id":14,"left_children":[1,3,5,7,9,11,13,-1,-1,-1,-1,-1,-1,-1,-1],"loss_changes":[1.6391592E12,3.7880018E11,3.4243556E11,4.913732E10,9.3042246E10,1.08687E11,6.1421388E10,0E0,0E0,0E0,0E0,0E0,0E0,0E0,0E0],"parents":[2147483647,0,0,1,1,2,2,3,3,4,4,5,5,6,6],"right_children":[2,4,6,8,10,12,14,-1,-1,-1,-1,-1,-1,-1,-1],"split_conditions":[3.1903E4,2.6924E4,3.9637E4,2.5128E4,8E0,3.5193E4,1.72E2,2.0861328E2,2.3479861E2,2.466672E2,2.7490533E2,2.9056796E2,3.2162555E2,3.236964E2,3.67554E2],"split_indices":[6,6,6,7,1,7,0,0,0,0,0,0,0,0,0],"split_type":[0,0,0,0,0,0,0,0,0,0,0,0,0,0,0],"sum_hessian":[1.45351E5,8.1283E4,6.4068E4,2.9364E4,5.1919E4,4.7515E4,1.6553E4,1.6434E4,1.293E4,1.7987E4,3.3932E4,2.8709E4,1.8806E4,4.46E3,1.2093E4],"tree_param":{"num_deleted":"0","num_feature":"9","num_nodes":"15","size_leaf_vector":"1"}},{"base_weights":[2.7591844E4,2.497636E4,3.1822293E4,2.2431037E4,2.6925506E4,3.0597865E4,3.5916332E4,2.0804E2,2.3772992E2,2.4759676E2,2.7784424E2,2.9559467E2,3.2751282E2,3.1719543E2,3.687339E2],"categories":[],"categories_nodes":[],"categories_segments":[],"categories_sizes":[],"default_left":[1,0,1,0,0,0,0,0,0,0,0,0,0,0,0],"id":15,"left_children":[1,3,5,7,9,11,13,-1,-1,-1,-1,-1,-1,-1,-1],"loss_changes":[1.6074838E12,4.4503663E11,2.7725608E11,8.4573946E10,9.393144E10,9.463189E10,5.015444E10,0E0,0E0,0E0,0E0,0E0,0E0,0E0,0E0],"parents":[2147483647,0,0,1,1,2,2,3,3,4,4,5,5,6,6],"right_children":[2,4,6,8,10,12,14,-1,-1,-1,-1,-1,-1,-1,-1],"split_conditions":[3.2794E4,2.8266E4,3.9917E4,2.4966E4,8E0,3.7924E4,1.58E2,2.0804E2,2.3772992E2,2.4759676E2,2.7784424E2,2.9559467E2,3.2751282E2,3.1719543E2,3.687339E2],"split_indices":[6,6,8,6,1,6,0,0,0,0,0,0,0,0,0],"split_type":[0,0,0,0,0,0,0,0,0,0,0,0,0,0,0],"sum_hessian":[1.45351E5,8.9824E4,5.5527E4,3.896E4,5.0864E4,4.275E4,1.2777E4,1.7617E4,2.1343E4,1.4452E4,3.6412E4,2.8852E4,1.3898E4,2.379E3,1.0398E4],"tree_param":{"num_deleted":"0","num_feature":"9","num_nodes":"15","size_leaf_vector":"1"}},{"base_weights":[2.7315941E4,2.4456852E4,3.1109379E4,2.1575076E4,2.603743E4,2.9780857E4,3.4963035E4,2.003043E2,2.2642694E2,2.4203041E2,2.698929E2,2.8543652E2,3.1586368E2,3.146109E2,3.6014703E2],"categories":[],"categories_nodes":[],"categories_segments":[],"categories_sizes":[],"default_left":[1,0,0,0,0,1,0,0,0,0,0,0,0,0,0],"id":16,"left_children":[1,3,5,7,9,11,13,-1,-1,-1,-1,-1,-1,-1,-1],"loss_changes":[1.5756993E12,3.7698404E11,3.187587E11,4.797235E10,9.279898E10,1.02873694E11,5.7822675E10,0E0,0E0,0E0,0E0,0E0,0E0,0E0,0E0],"parents":[2147483647,0,0,1,1,2,2,3,3,4,4,5,5,6,6],"right_children":[2,4,6,8,10,12,14,-1,-1,-1,-1,-1,-1,-1,-1],"split_conditions":[3.2059E4,2.6924E4,3.981E4,2.4482E4,8E0,3.5193E4,1.65E2,2.003043E2,2.2642694E2,2.4203041E2,2.698929E2,2.8543652E2,3.1586368E2,3.146109E2,3.6014703E2],"split_indices":[6,6,6,7,1,7,0,0,0,0,0,0,0,0,0],"split_type":[0,0,0,0,0,0,0,0,0,0,0,0,0,0,0],"sum_hessian":[1.45351E5,8.2887E4,6.2464E4,2.9364E4,5.3523E4,4.6457E4,1.6007E4,1.2009E4,1.7355E4,1.8294E4,3.5229E4,2.7577E4,1.888E4,3.704E3,1.2303E4],"tree_param":{"num_deleted":"0","num_feature":"9","num_nodes":"15","size_leaf_vector":"1"}},{"base_weights":[2.7042799E4,2.4478436E4,3.1190559E4,2.1981305E4,2.6390678E4,2.9961568E4,3.5144562E4,2.0384483E2,2.3298341E2,2.4266072E2,2.723325E2,2.895256E2,3.207359E2,3.112027E2,3.609607E2],"categories":[],"categories_nodes":[],"categories_segments":[],"categories_sizes":[],"default_left":[1,0,1,0,0,0,0,0,0,0,0,0,0,0,0],"id":17,"left_children":[1,3,5,7,9,11,13,-1,-1,-1,-1,-1,-1,-1,-1],"loss_changes":[1.5452571E12,4.283433E11,2.6878358E11,8.146177E10,9.0391446E10,8.935965E10,4.9272586E10,0E0,0E0,0E0,0E0,0E0,0E0,0E0,0E0],"parents":[2147483647,0,0,1,1,2,2,3,3,4,4,5,5,6,6],"right_children":[2,4,6,8,10,12,14,-1,-1,-1,-1,-1,-1,-1,-1],"split_conditions":[3.2794E4,2.8266E4,3.9742E4,2.4966E4,8E0,3.7924E4,1.58E2,2.0384483E2,2.3298341E2,2.4266072E2,2.723325E2,2.895256E2,3.207359E2,3.112027E2,3.609607E2],"split_indices":[6,6,8,6,1,6,0,0,0,0,0,0,0,0,0],"split_type":[0,0,0,0,0,0,0,0,0,0,0,0,0,0,0],"sum_hessian":[1.45351E5,8.9824E4,5.5527E4,3.896E4,5.0864E4,4.2367E4,1.316E4,1.7617E4,2.1343E4,1.4452E4,3.6412E4,2.868E4,1.3687E4,2.523E3,1.0637E4],"tree_param":{"num_deleted":"0","num_feature":"9","num_nodes":"15","size_leaf_vector":"1"}},{"base_weights":[2.6772385E4,2.3905375E4,3.0409328E4,2.0977885E4,2.537883E4,2.9091371E4,3.4190508E4,1.9368463E2,2.1901382E2,2.3640082E2,2.633939E2,2.738099E2,3.0364905E2,3.107456E2,3.533703E2],"categories":[],"categories_nodes":[],"categories_segments":[],"categories_sizes":[],"default_left":[1,0,0,0,0,0,0,0,0,0,0,0,0,0,0],"id":18,"left_children":[1,3,5,7,9,11,13,-1,-1,-1,-1,-1,-1,-1,-1],"loss_changes":[1.514882E12,3.5008597E11,3.1828476E11,4.0032535E10,8.967841E10,1.0267237E11,5.804078E10,0E0,0E0,0E0,0E0,0E0,0E0,0E0,0E0],"parents":[2147483647,0,0,1,1,2,2,3,3,4,4,5,5,6,6],"right_children":[2,4,6,8,10,12,14,-1,-1,-1,-1,-1,-1,-1,-1],"split_conditions":[3.1903E4,2.6601E4,3.9637E4,2.3928E4,8E0,3.4187E4,1.72E2,1.9368463E2,2.1901382E2,2.3640082E2,2.633939E2,2.738099E2,3.0364905E2,3.107456E2,3.533703E2],"split_indices":[6,6,6,7,1,8,0,0,0,0,0,0,0,0,0],"split_type":[0,0,0,0,0,0,0,0,0,0,0,0,0,0,0],"sum_hessian":[1.45351E5,8.1283E4,6.4068E4,2.7219E4,5.4064E4,4.7515E4,1.6553E4,9.932E3,1.7287E4,1.9248E4,3.4816E4,2.0289E4,2.7226E4,4.46E3,1.2093E4],"tree_param":{"num_deleted":"0","num_feature":"9","num_nodes":"15","size_leaf_vector":"1"}},{"base_weights":[2.6504676E4,2.399018E4,3.0571781E4,2.153998E4,2.5866482E4,2.931155E4,3.4330477E4,1.9974191E2,2.2831421E2,2.3782207E2,2.669306E2,2.7501895E2,3.0518967E2,3.2779904E2,3.674928E2],"categories":[],"categories_nodes":[],"categories_segments":[],"categories_sizes":[],"default_left":[1,0,1,0,0,0,1,0,0,0,0,0,0,0,0],"id":19,"left_children":[1,3,5,7,9,11,13,-1,-1,-1,-1,-1,-1,-1,-1],"loss_changes":[1.4857399E12,4.1239655E11,2.6202237E11,7.832863E10,8.699825E10,9.003912E10,5.10667E10,0E0,0E0,0E0,0E0,0E0,0E0,0E0,0E0],"parents":[2147483647,0,0,1,1,2,2,3,3,4,4,5,5,6,6],"right_children":[2,4,6,8,10,12,14,-1,-1,-1,-1,-1,-1,-1,-1],"split_conditions":[3.2794E4,2.8266E4,3.9851E4,2.4966E4,8E0,3.4388E4,4.2272E4,1.9974191E2,2.2831421E2,2.3782207E2,2.669306E2,2.7501895E2,3.0518967E2,3.2779904E2,3.674928E2],"split_indices":[6,6,7,6,1,8,8,0,0,0,0,0,0,0,0],"split_type":[0,0,0,0,0,0,0,0,0,0,0,0,0,0,0],"sum_hessian":[1.45351E5,8.9824E4,5.5527E4,3.896E4,5.0864E4,4.1591E4,1.3936E4,1.7617E4,2.1343E4,1.4452E4,3.6412E4,1.6654E4,2.4937E4,8.501E3,5.435E3],"tree_param":{"num_deleted":"0","num_feature":"9","num_nodes":"15","size_leaf_vector":"1"}},{"base_weights":[2.6239645E4,2.3750287E4,3.0266086E4,2.1324592E4,2.5607826E4,2.901845E4,3.3987223E4,1.9981473E2,2.2809152E2,2.3544402E2,2.6426135E2,2.691607E2,3.0037817E2,3.0658847E2,3.50894E2],"categories":[],"categories_nodes":[],"categories_segments":[],"categories_sizes":[],"default_left":[1,0,1,1,0,0,0,0,0,0,0,0,0,0,0],"id":20,"left_children":[1,3,5,7,9,11,13,-1,-1,-1,-1,-1,-1,-1,-1],"loss_changes":[1.4561785E12,4.041883E11,2.5680465E11,7.722972E10,8.526391E10,8.832575E10,5.005168E10,0E0,0E0,0E0,0E0,0E0,0E0,0E0,0E0],"parents":[2147483647,0,0,1,1,2,2,3,3,4,4,5,5,6,6],"right_children":[2,4,6,8,10,12,14,-1,-1,-1,-1,-1,-1,-1,-1],"split_conditions":[3.2794E4,2.8266E4,3.9851E4,2.5726E4,8E0,3.3513E4,1.72E2,1.9981473E2,2.2809152E2,2.3544402E2,2.6426135E2,2.691607E2,3.0037817E2,3.0658847E2,3.50894E2],"split_indices":[6,6,7,7,1,8,0,0,0,0,0,0,0,0,0],"split_type":[0,0,0,0,0,0,0,0,0,0,0,0,0,0,0],"sum_hessian":[1.45351E5,8.9824E4,5.5527E4,3.896E4,5.0864E4,4.1591E4,1.3936E4,2.0462E4,1.8498E4,1.4452E4,3.6412E4,1.359E4,2.8001E4,3.474E3,1.0462E4],"tree_param":{"num_deleted":"0","num_feature":"9","num_nodes":"15","size_leaf_vector":"1"}},{"base_weights":[2.5977264E4,2.3193492E4,2.9508613E4,2.0348664E4,2.4625342E4,2.8248844E4,3.3289066E4,1.8668214E2,2.119925E2,2.2939038E2,2.5556927E2,2.7065277E2,3.003062E2,2.9912433E2,3.430314E2],"categories":[],"categories_nodes":[],"categories_segments":[],"categories_sizes":[],"default_left":[1,0,0,0,0,1,0,0,0,0,0,0,0,0,0],"id":21,"left_children":[1,3,5,7,9,11,13,-1,-1,-1,-1,-1,-1,-1,-1],"loss_changes":[1.4281941E12,3.3059924E11,3.041919E11,3.851105E10,8.434745E10,1.0054166E11,5.3785657E10,0E0,0E0,0E0,0E0,0E0,0E0,0E0,0E0],"parents":[2147483647,0,0,1,1,2,2,3,3,4,4,5,5,6,6],"right_children":[2,4,6,8,10,12,14,-1,-1,-1,-1,-1,-1,-1,-1],"split_conditions":[3.1903E4,2.6601E4,3.981E4,2.3702E4,8E0,3.5193E4,1.65E2,1.8668214E2,2.119925E2,2.2939038E2,2.5556927E2,2.7065277E2,3.003062E2,2.9912433E2,3.430314E2],"split_indices":[6,6,6,7,1,7,0,0,0,0,0,0,0,0,0],"split_type":[0,0,0,0,0,0,0,0,0,0,0,0,0,0,0],"sum_hessian":[1.45351E5,8.1283E4,6.4068E4,2.7219E4,5.4064E4,4.8061E4,1.6007E4,9.155E3,1.8064E4,1.9248E4,3.4816E4,2.8888E4,1.9173E4,3.704E3,1.2303E4],"tree_param":{"num_deleted":"0","num_feature":"9","num_nodes":"15","size_leaf_vector":"1"}},{"base_weights":[2.5717504E4,2.3295545E4,2.9696836E4,2.0896455E4,2.5113523E4,2.8528174E4,3.3567586E4,1.9281209E2,2.2089293E2,2.2812395E2,2.5825613E2,2.7546375E2,3.0528494E2,2.95692E2,3.4479343E2],"categories":[],"categories_nodes":[],"categories_segments":[],"categories_sizes":[],"default_left":[1,0,1,0,0,0,0,0,0,0,0,0,0,0,0],"id":22,"left_children":[1,3,5,7,9,11,13,-1,-1,-1,-1,-1,-1,-1,-1],"loss_changes":[1.4001761E12,3.935893E11,2.4779948E11,7.464183E10,8.363862E10,8.212867E10,4.5450527E10,0E0,0E0,0E0,0E0,0E0,0E0,0E0,0E0],"parents":[2147483647,0,0,1,1,2,2,3,3,4,4,5,5,6,6],"right_children":[2,4,6,8,10,12,14,-1,-1,-1,-1,-1,-1,-1,-1],"split_conditions":[3.2853E4,2.8266E4,3.9917E4,2.4752E4,7E0,3.7924E4,1.58E2,1.9281209E2,2.2089293E2,2.2812395E2,2.5825613E2,2.7546375E2,3.0528494E2,2.95692E2,3.4479343E2],"split_indices":[6,6,8,6,1,6,0,0,0,0,0,0,0,0,0],"split_type":[0,0,0,0,0,0,0,0,0,0,0,0,0,0,0],"sum_hessian":[1.45351E5,9.0361E4,5.499E4,3.896E4,5.1401E4,4.2244E4,1.2746E4,1.6557E4,2.2403E4,1.2155E4,3.9246E4,2.8346E4,1.3898E4,2.373E3,1.0373E4],"tree_param":{"num_deleted":"0","num_feature":"9","num_nodes":"15","size_leaf_vector":"1"}},{"base_weights":[2.5460344E4,2.2730959E4,2.8922703E4,2.0098535E4,2.4219373E4,2.7766635E4,3.2915125E4,1.9105394E2,2.1612444E2,2.2532118E2,2.5113075E2,2.6581076E2,2.957536E2,2.9267438E2,3.3875284E2],"categories":[],"categories_nodes":[],"categories_segments":[],"categories_sizes":[],"default_left":[1,0,1,1,0,0,0,0,0,0,0,0,0,0,0],"id":23,"left_children":[1,3,5,7,9,11,13,-1,-1,-1,-1,-1,-1,-1,-1],"loss_changes":[1.3729299E12,3.1799535E11,2.9479666E11,4.3738202E10,7.772255E10,1.0576357E11,4.9376395E10,0E0,0E0,0E0,0E0,0E0,0E0,0E0,0E0],"parents":[2147483647,0,0,1,1,2,2,3,3,4,4,5,5,6,6],"right_children":[2,4,6,8,10,12,14,-1,-1,-1,-1,-1,-1,-1,-1],"split_conditions":[3.1903E4,2.6924E4,3.9406E4,2.5529E4,8E0,3.6275E4,1.58E2,1.9105394E2,2.1612444E2,2.2532118E2,2.5113075E2,2.6581076E2,2.957536E2,2.9267438E2,3.3875284E2],"split_indices":[6,6,8,7,1,6,0,0,0,0,0,0,0,0,0],"split_type":[0,0,0,0,0,0,0,0,0,0,0,0,0,0,0],"sum_hessian":[1.45351E5,8.1283E4,6.4068E4,2.9364E4,5.1919E4,4.9688E4,1.438E4,1.774E4,1.1624E4,1.7987E4,3.3932E4,3.0024E4,1.9664E4,3.003E3,1.1377E4],"tree_param":{"num_deleted":"0","num_feature":"9","num_nodes":"15","size_leaf_vector":"1"}},{"base_weights":[2.5205756E4,2.2922555E4,2.9264912E4,2.0477549E4,2.4683887E4,2.8026707E4,3.2725734E4,1.9228516E2,2.1971048E2,2.2379523E2,2.5375958E2,2.6358533E2,2.9235236E2,2.9465717E2,3.3795624E2],"categories":[],"categories_nodes":[],"categories_segments":[],"categories_sizes":[],"default_left":[1,0,1,1,0,0,0,0,0,0,0,0,0,0,0],"id":24,"left_children":[1,3,5,7,9,11,13,-1,-1,-1,-1,-1,-1,-1,-1],"loss_changes":[1.3464303E12,4.001324E11,2.2329216E11,7.225632E10,8.566237E10,7.692983E10,4.706848E10,0E0,0E0,0E0,0E0,0E0,0E0,0E0,0E0],"parents":[2147483647,0,0,1,1,2,2,3,3,4,4,5,5,6,6],"right_children":[2,4,6,8,10,12,14,-1,-1,-1,-1,-1,-1,-1,-1],"split_conditions":[3.3173E4,2.8266E4,3.9851E4,2.591E4,7E0,3.4827E4,1.72E2,1.9228516E2,2.1971048E2,2.2379523E2,2.5375958E2,2.6358533E2,2.9235236E2,2.9465717E2,3.3795624E2],"split_indices":[6,6,7,7,1,8,0,0,0,0,0,0,0,0,0],"split_type":[0,0,0,0,0,0,0,0,0,0,0,0,0,0,0],"sum_hessian":[1.45351E5,9.303E4,5.2321E4,3.896E4,5.407E4,3.8541E4,1.378E4,2.1224E4,1.7736E4,1.2496E4,4.1574E4,1.6201E4,2.234E4,3.412E3,1.0368E4],"tree_param":{"num_deleted":"0","num_feature":"9","num_nodes":"15","size_leaf_vector":"1"}},{"base_weights":[2.495371E4,2.2277377E4,2.8348773E4,1.9498734E4,2.3635447E4,2.712854E4,3.2010602E4,1.8020726E2,2.0403293E2,2.2022777E2,2.4535411E2,2.596329E2,2.883721E2,2.872479E2,3.299743E2],"categories":[],"categories_nodes":[],"categories_segments":[],"categories_sizes":[],"default_left":[1,0,0,0,0,1,0,0,0,0,0,0,0,0,0],"id":25,"left_children":[1,3,5,7,9,11,13,-1,-1,-1,-1,-1,-1,-1,-1],"loss_changes":[1.3200817E12,3.0626808E11,2.854098E11,3.531604E10,7.869563E10,9.4942265E10,5.0958696E10,0E0,0E0,0E0,0E0,0E0,0E0,0E0,0E0],"parents":[2147483647,0,0,1,1,2,2,3,3,4,4,5,5,6,6],"right_children":[2,4,6,8,10,12,14,-1,-1,-1,-1,-1,-1,-1,-1],"split_conditions":[3.1903E4,2.6524E4,3.981E4,2.3417E4,8E0,3.5116E4,1.65E2,1.8020726E2,2.0403293E2,2.2022777E2,2.4535411E2,2.596329E2,2.883721E2,2.872479E2,3.299743E2],"split_indices":[6,6,6,6,1,7,0,0,0,0,0,0,0,0,0],"split_type":[0,0,0,0,0,0,0,0,0,0,0,0,0,0,0],"sum_hessian":[1.45351E5,8.1283E4,6.4068E4,2.669E4,5.4593E4,4.8061E4,1.6007E4,1.0141E4,1.6549E4,1.9563E4,3.503E4,2.8584E4,1.9477E4,3.704E3,1.2303E4],"tree_param":{"num_deleted":"0","num_feature":"9","num_nodes":"15","size_leaf_vector":"1"}},{"base_weights":[2.470419E4,2.2465154E4,2.8684824E4,2.0066246E4,2.419328E4,2.7579436E4,3.2465223E4,1.8307729E2,2.1100262E2,2.1929927E2,2.4873036E2,2.5367876E2,2.8429114E2,2.8447025E2,3.329103E2],"categories":[],"categories_nodes":[],"categories_segments":[],"categories_sizes":[],"default_left":[1,0,1,0,0,0,0,0,0,0,0,0,0,0,0],"id":26,"left_children":[1,3,5,7,9,11,13,-1,-1,-1,-1,-1,-1,-1,-1],"loss_changes":[1.2948488E12,3.851839E11,2.1775149E11,7.045697E10,8.264457E10,7.536535E10,3.831392E10,0E0,0E0,0E0,0E0,0E0,0E0,0E0,0E0],"parents":[2147483647,0,0,1,1,2,2,3,3,4,4,5,5,6,6],"right_children":[2,4,6,8,10,12,14,-1,-1,-1,-1,-1,-1,-1,-1],"split_conditions":[3.3173E4,2.8266E4,4.0283E4,2.5334E4,7E0,3.3021E4,1.58E2,1.8307729E2,2.1100262E2,2.1929927E2,2.4873036E2,2.5367876E2,2.8429114E2,2.8447025E2,3.329103E2],"split_indices":[6,6,8,8,1,8,0,0,0,0,0,0,0,0,0],"split_type":[0,0,0,0,0,0,0,0,0,0,0,0,0,0,0],"sum_hessian":[1.45351E5,9.303E4,5.2321E4,3.896E4,5.407E4,4.049E4,1.1831E4,1.4433E4,2.4527E4,1.2496E4,4.1574E4,1.1247E4,2.9243E4,2.023E3,9.808E3],"tree_param":{"num_deleted":"0","num_feature":"9","num_nodes":"15","size_leaf_vector":"1"}},{"base_weights":[2.445716E4,2.183285E4,2.7786227E4,1.910618E4,2.316552E4,2.6646256E4,3.1601137E4,1.7518246E2,1.9928969E2,2.1469241E2,2.3999443E2,2.4769926E2,2.7732846E2,3.0149515E2,3.397601E2],"categories":[],"categories_nodes":[],"categories_segments":[],"categories_sizes":[],"default_left":[1,0,1,0,0,0,1,0,0,0,0,0,0,0,0],"id":27,"left_children":[1,3,5,7,9,11,13,-1,-1,-1,-1,-1,-1,-1,-1],"loss_changes":[1.2692635E12,2.949225E11,2.7778875E11,3.4522268E10,7.671172E10,9.9897836E10,4.9772757E10,0E0,0E0,0E0,0E0,0E0,0E0,0E0,0E0],"parents":[2147483647,0,0,1,1,2,2,3,3,4,4,5,5,6,6],"right_children":[2,4,6,8,10,12,14,-1,-1,-1,-1,-1,-1,-1,-1],"split_conditions":[3.1903E4,2.6524E4,3.9671E4,2.3702E4,2.9848E4,3.3513E4,4.2272E4,1.7518246E2,1.9928969E2,2.1469241E2,2.3999443E2,2.4769926E2,2.7732846E2,3.0149515E2,3.397601E2],"split_indices":[6,6,7,7,8,8,8,0,0,0,0,0,0,0,0],"split_type":[0,0,0,0,0,0,0,0,0,0,0,0,0,0,0],"sum_hessian":[1.45351E5,8.1283E4,6.4068E4,2.669E4,5.4593E4,4.9334E4,1.4734E4,9.117E3,1.7573E4,1.8002E4,3.6591E4,1.8101E4,3.1233E4,9.153E3,5.581E3],"tree_param":{"num_deleted":"0","num_feature":"9","num_nodes":"15","size_leaf_vector":"1"}},{"base_weights":[2.4212604E4,2.2016531E4,2.811686E4,1.9664066E4,2.3711197E4,2.6985256E4,3.1681773E4,1.856149E2,2.1262221E2,2.1733713E2,2.44692E2,2.4802167E2,2.7799603E2,2.7877045E2,3.253446E2],"categories":[],"categories_nodes":[],"categories_segments":[],"categories_sizes":[],"default_left":[1,0,1,1,0,0,0,0,0,0,0,0,0,0,0],"id":28,"left_children":[1,3,5,7,9,11,13,-1,-1,-1,-1,-1,-1,-1,-1],"loss_changes":[1.2456328E12,3.7041157E11,2.1021432E11,6.8258103E10,8.051805E10,6.992953E10,3.9972766E10,0E0,0E0,0E0,0E0,0E0,0E0,0E0,0E0],"parents":[2147483647,0,0,1,1,2,2,3,3,4,4,5,5,6,6],"right_children":[2,4,6,8,10,12,14,-1,-1,-1,-1,-1,-1,-1,-1],"split_conditions":[3.3173E4,2.8266E4,3.9917E4,2.6342E4,8E0,3.2892E4,1.58E2,1.856149E2,2.1262221E2,2.1733713E2,2.44692E2,2.4802167E2,2.7799603E2,2.7877045E2,3.253446E2],"split_indices":[6,6,8,7,1,8,0,0,0,0,0,0,0,0,0],"split_type":[0,0,0,0,0,0,0,0,0,0,0,0,0,0,0],"sum_hessian":[1.45351E5,9.303E4,5.2321E4,3.896E4,5.407E4,3.9721E4,1.26E4,2.3062E4,1.5898E4,1.4991E4,3.9079E4,1.08E4,2.8921E4,2.313E3,1.0287E4],"tree_param":{"num_deleted":"0","num_feature":"9","num_nodes":"15","size_leaf_vector":"1"}},{"base_weights":[2.397049E4,2.1796375E4,2.7835713E4,1.9467438E4,2.3474094E4,2.6643852E4,3.116703E4,1.7743285E2,2.0479025E2,2.1260347E2,2.4138959E2,2.517736E2,2.7909686E2,2.8006616E2,3.2204285E2],"categories":[],"categories_nodes":[],"categories_segments":[],"categories_sizes":[],"default_left":[1,0,1,0,0,0,0,0,0,0,0,0,0,0,0],"id":29,"left_children":[1,3,5,7,9,11,13,-1,-1,-1,-1,-1,-1,-1,-1],"loss_changes":[1.2208445E12,3.6304218E11,2.0690921E11,6.759016E10,7.907102E10,7.084599E10,4.4274024E10,0E0,0E0,0E0,0E0,0E0,0E0,0E0,0E0],"parents":[2147483647,0,0,1,1,2,2,3,3,4,4,5,5,6,6],"right_children":[2,4,6,8,10,12,14,-1,-1,-1,-1,-1,-1,-1,-1],"split_conditions":[3.3173E4,2.8266E4,3.9851E4,2.4322E4,7E0,3.5374E4,1.72E2,1.7743285E2,2.0479025E2,2.1260347E2,2.4138959E2,2.517736E2,2.7909686E2,2.8006616E2,3.2204285E2],"split_indices":[6,6,7,6,1,8,0,0,0,0,0,0,0,0,0],"split_type":[0,0,0,0,0,0,0,0,0,0,0,0,0,0,0],"sum_hessian":[1.45351E5,9.303E4,5.2321E4,3.896E4,5.407E4,3.8541E4,1.378E4,1.4413E4,2.4547E4,1.2496E4,4.1574E4,1.7865E4,2.0676E4,3.412E3,1.0368E4],"tree_param":{"num_deleted":"0","num_feature":"9","num_nodes":"15","size_leaf_vector":"1"}},{"base_weights":[2.3730799E4,2.118206E4,2.6964002E4,1.8532115E4,2.247723E4,2.575851E4,3.0422572E4,1.6892093E2,1.9301349E2,2.0816087E2,2.3293884E2,2.4598088E2,2.7338712E2,2.7555664E2,3.1477545E2],"categories":[],"categories_nodes":[],"categories_segments":[],"categories_sizes":[],"default_left":[1,0,0,0,0,1,0,0,0,0,0,0,0,0,0],"id":30,"left_children":[1,3,5,7,9,11,13,-1,-1,-1,-1,-1,-1,-1,-1],"loss_changes":[1.1972221E12,2.785605E11,2.6633411E11,3.3346814E10,7.357648E10,8.6459286E10,4.920233E10,0E0,0E0,0E0,0E0,0E0,0E0,0E0,0E0],"parents":[2147483647,0,0,1,1,2,2,3,3,4,4,5,5,6,6],"right_children":[2,4,6,8,10,12,14,-1,-1,-1,-1,-1,-1,-1,-1],"split_conditions":[3.1903E4,2.6524E4,3.9637E4,2.3063E4,2.9848E4,3.4877E4,1.72E2,1.6892093E2,1.9301349E2,2.0816087E2,2.3293884E2,2.4598088E2,2.7338712E2,2.7555664E2,3.1477545E2],"split_indices":[6,6,6,6,8,7,0,0,0,0,0,0,0,0,0],"split_type":[0,0,0,0,0,0,0,0,0,0,0,0,0,0,0],"sum_hessian":[1.45351E5,8.1283E4,6.4068E4,2.669E4,5.4593E4,4.7515E4,1.6553E4,8.529E3,1.8161E4,1.8002E4,3.6591E4,2.7406E4,2.0109E4,4.46E3,1.2093E4],"tree_param":{"num_deleted":"0","num_feature":"9","num_nodes":"15","size_leaf_vector":"1"}},{"base_weights":[2.3493504E4,2.1445424E4,2.7439852E4,1.9077299E4,2.3071281E4,2.642572E4,3.1211611E4,1.7373354E2,2.0079242E2,2.1089182E2,2.3810945E2,2.5846762E2,2.9591934E2,2.71444E2,3.1930307E2],"categories":[],"categories_nodes":[],"categories_segments":[],"categories_sizes":[],"default_left":[1,0,1,0,0,0,0,0,0,0,0,0,0,0,0],"id":31,"left_children":[1,3,5,7,9,11,13,-1,-1,-1,-1,-1,-1,-1,-1],"loss_changes":[1.1742122E12,3.6801243E11,1.8912117E11,6.616829E10,8.267602E10,7.0988595E10,2.9874979E10,0E0,0E0,0E0,0E0,0E0,0E0,0E0,0E0],"parents":[2147483647,0,0,1,1,2,2,3,3,4,4,5,5,6,6],"right_children":[2,4,6,8,10,12,14,-1,-1,-1,-1,-1,-1,-1,-1],"split_conditions":[3.3491E4,2.8266E4,4.0875E4,2.5334E4,8E0,4.1688E4,1.58E2,1.7373354E2,2.0079242E2,2.1089182E2,2.3810945E2,2.5846762E2,2.9591934E2,2.71444E2,3.1930307E2],"split_indices":[6,6,8,8,1,6,0,0,0,0,0,0,0,0,0],"split_type":[0,0,0,0,0,0,0,0,0,0,0,0,0,0,0],"sum_hessian":[1.45351E5,9.5694E4,4.9657E4,3.896E4,5.6734E4,3.9141E4,1.0516E4,1.4433E4,2.4527E4,1.5426E4,4.1308E4,3.3098E4,6.043E3,1.585E3,8.931E3],"tree_param":{"num_deleted":"0","num_feature":"9","num_nodes":"15","size_leaf_vector":"1"}},{"base_weights":[2.3258584E4,2.0664762E4,2.6314004E4,1.8119568E4,2.1933496E4,2.4899781E4,2.9210445E4,1.65592E2,1.8897507E2,2.0351764E2,2.2754488E2,2.3454488E2,2.601459E2,2.7882098E2,3.1643195E2],"categories":[],"categories_nodes":[],"categories_segments":[],"categories_sizes":[],"default_left":[1,0,0,0,0,0,1,0,0,0,0,0,0,0,0],"id":32,"left_children":[1,3,5,7,9,11,13,-1,-1,-1,-1,-1,-1,-1,-1],"loss_changes":[1.1514036E12,2.5347437E11,2.7262976E11,3.1440503E10,6.7662512E10,7.16492E10,6.984984E10,0E0,0E0,0E0,0E0,0E0,0E0,0E0,0E0],"parents":[2147483647,0,0,1,1,2,2,3,3,4,4,5,5,6,6],"right_children":[2,4,6,8,10,12,14,-1,-1,-1,-1,-1,-1,-1,-1],"split_conditions":[3.1638E4,2.6436E4,3.8171E4,2.3582E4,2.9848E4,3.352E4,4.0875E4,1.65592E2,1.8897507E2,2.0351764E2,2.2754488E2,2.3454488E2,2.601459E2,2.7882098E2,3.1643195E2],"split_indices":[6,6,6,7,8,7,8,0,0,0,0,0,0,0,0],"split_type":[0,0,0,0,0,0,0,0,0,0,0,0,0,0,0],"sum_hessian":[1.45351E5,7.8618E4,6.6733E4,2.6158E4,5.246E4,4.4846E4,2.1887E4,8.71E3,1.7448E4,1.7934E4,3.4526E4,1.9538E4,2.5308E4,1.4165E4,7.722E3],"tree_param":{"num_deleted":"0","num_feature":"9","num_nodes":"15","size_leaf_vector":"1"}},{"base_weights":[2.302601E4,2.1017469E4,2.6896168E4,1.8747553E4,2.2649412E4,2.5900645E4,3.059873E4,1.7645364E2,2.0277745E2,2.0402248E2,2.3294513E2,2.5330751E2,2.9017288E2,2.6589667E2,3.130717E2],"categories":[],"categories_nodes":[],"categories_segments":[],"categories_sizes":[],"default_left":[1,0,1,1,0,0,0,0,0,0,0,0,0,0,0],"id":33,"left_children":[1,3,5,7,9,11,13,-1,-1,-1,-1,-1,-1,-1,-1],"loss_changes":[1.129308E12,3.5406637E11,1.822467E11,6.7155E10,8.022026E10,6.8786586E10,2.9037167E10,0E0,0E0,0E0,0E0,0E0,0E0,0E0,0E0],"parents":[2147483647,0,0,1,1,2,2,3,3,4,4,5,5,6,6],"right_children":[2,4,6,8,10,12,14,-1,-1,-1,-1,-1,-1,-1,-1],"split_conditions":[3.3491E4,2.8411E4,4.0875E4,2.6342E4,7E0,4.1688E4,1.58E2,1.7645364E2,2.0277745E2,2.0402248E2,2.3294513E2,2.5330751E2,2.9017288E2,2.6589667E2,3.130717E2],"split_indices":[6,6,8,7,1,6,0,0,0,0,0,0,0,0,0],"split_type":[0,0,0,0,0,0,0,0,0,0,0,0,0,0,0],"sum_hessian":[1.45351E5,9.5694E4,4.9657E4,4.0029E4,5.5665E4,3.9141E4,1.0516E4,2.3276E4,1.6753E4,1.2423E4,4.3242E4,3.3098E4,6.043E3,1.585E3,8.931E3],"tree_param":{"num_deleted":"0","num_feature":"9","num_nodes":"15","size_leaf_vector":"1"}},{"base_weights":[2.2795764E4,1.9540992E4,2.5139562E4,1.755746E4,2.078689E4,2.372282E4,2.820569E4,1.6188326E2,1.833721E2,1.961903E2,2.1691902E2,2.0153174E2,2.4351152E2,2.6967987E2,3.0831598E2],"categories":[],"categories_nodes":[],"categories_segments":[],"categories_sizes":[],"default_left":[0,0,1,0,0,0,1,0,0,0,0,0,0,0,0],"id":34,"left_children":[1,3,5,7,9,11,13,-1,-1,-1,-1,-1,-1,-1,-1],"loss_changes":[1.108328E12,1.5002396E11,3.6638084E11,2.4773657E10,3.9075185E10,1.2915101E11,8.594129E10,0E0,0E0,0E0,0E0,0E0,0E0,0E0,0E0],"parents":[2147483647,0,0,1,1,2,2,3,3,4,4,5,5,6,6],"right_children":[2,4,6,8,10,12,14,-1,-1,-1,-1,-1,-1,-1,-1],"split_conditions":[3.0764E4,2.6023E4,3.7101E4,2.3063E4,2.9397E4,7E0,4.0875E4,1.6188326E2,1.833721E2,1.961903E2,2.1691902E2,2.0153174E2,2.4351152E2,2.6967987E2,3.0831598E2],"split_indices":[6,6,6,6,8,1,8,0,0,0,0,0,0,0,0],"split_type":[0,0,0,0,0,0,0,0,0,0,0,0,0,0,0],"sum_hessian":[1.45351E5,6.0854E4,8.4497E4,2.3483E4,3.7371E4,5.7799E4,2.6698E4,8.529E3,1.4954E4,1.6326E4,2.1045E4,8.656E3,4.9143E4,1.8153E4,8.545E3],"tree_param":{"num_deleted":"0","num_feature":"9","num_nodes":"15","size_leaf_vector":"1"}},{"base_weights":[2.2567818E4,2.0433586E4,2.6074408E4,1.8012121E4,2.1832586E4,2.4950547E4,2.9391443E4,1.6505032E2,1.8964732E2,2.0110626E2,2.258952E2,2.2985739E2,2.5847812E2,2.6377704E2,3.0387823E2],"categories":[],"categories_nodes":[],"categories_segments":[],"categories_sizes":[],"default_left":[1,0,1,0,0,0,0,0,0,0,0,0,0,0,0],"id":35,"left_children":[1,3,5,7,9,11,13,-1,-1,-1,-1,-1,-1,-1,-1],"loss_changes":[1.08727265E12,3.0571862E11,2.042668E11,4.72006E10,7.418885E10,7.182746E10,4.097206E10,0E0,0E0,0E0,0E0,0E0,0E0,0E0,0E0],"parents":[2147483647,0,0,1,1,2,2,3,3,4,4,5,5,6,6],"right_children":[2,4,6,8,10,12,14,-1,-1,-1,-1,-1,-1,-1,-1],"split_conditions":[3.2853E4,2.7474E4,3.9851E4,2.5031E4,8E0,3.3389E4,1.72E2,1.6505032E2,1.8964732E2,2.0110626E2,2.258952E2,2.2985739E2,2.5847812E2,2.6377704E2,3.0387823E2],"split_indices":[6,6,7,8,1,8,0,0,0,0,0,0,0,0,0],"split_type":[0,0,0,0,0,0,0,0,0,0,0,0,0,0,0],"sum_hessian":[1.45351E5,9.0361E4,5.499E4,3.3094E4,5.7267E4,4.108E4,1.391E4,1.2824E4,2.027E4,1.7495E4,3.9772E4,1.2887E4,2.8193E4,3.463E3,1.0447E4],"tree_param":{"num_deleted":"0","num_feature":"9","num_nodes":"15","size_leaf_vector":"1"}},{"base_weights":[2.2342152E4,1.9148863E4,2.4641678E4,1.7010225E4,2.0260953E4,2.3250207E4,2.7653113E4,1.5715515E2,1.773293E2,1.8993805E2,2.1120296E2,1.973836E2,2.3868364E2,2.643529E2,3.023686E2],"categories":[],"categories_nodes":[],"categories_segments":[],"categories_sizes":[],"default_left":[0,0,1,0,0,0,1,0,0,0,0,0,0,0,0],"id":36,"left_children":[1,3,5,7,9,11,13,-1,-1,-1,-1,-1,-1,-1,-1],"loss_changes":[1.0668464E12,1.4438892E11,3.5343303E11,1.920729E10,4.3189797E10,1.2500704E11,8.32108E10,0E0,0E0,0E0,0E0,0E0,0E0,0E0,0E0],"parents":[2147483647,0,0,1,1,2,2,3,3,4,4,5,5,6,6],"right_children":[2,4,6,8,10,12,14,-1,-1,-1,-1,-1,-1,-1,-1],"split_conditions":[3.0764E4,2.5567E4,3.7101E4,2.2804E4,2.8925E4,7E0,4.0875E4,1.5715515E2,1.773293E2,1.8993805E2,2.1120296E2,1.973836E2,2.3868364E2,2.643529E2,3.023686E2],"split_indices":[6,6,6,6,8,1,8,0,0,0,0,0,0,0,0],"split_type":[0,0,0,0,0,0,0,0,0,0,0,0,0,0,0],"sum_hessian":[1.45351E5,6.0854E4,8.4497E4,2.0824E4,4.003E4,5.7799E4,2.6698E4,7.468E3,1.3356E4,1.6186E4,2.3844E4,8.656E3,4.9143E4,1.8153E4,8.545E3],"tree_param":{"num_deleted":"0","num_feature":"9","num_nodes":"15","size_leaf_vector":"1"}},{"base_weights":[2.2118742E4,2.0184752E4,2.5845254E4,1.8002416E4,2.175373E4,2.4820336E4,2.9251574E4,1.6931271E2,1.9489525E2,1.9841064E2,2.2456236E2,2.3391225E2,2.6050867E2,2.6016226E2,3.012195E2],"categories":[],"categories_nodes":[],"categories_segments":[],"categories_sizes":[],"default_left":[1,0,1,1,0,0,0,0,0,0,0,0,0,0,0],"id":37,"left_children":[1,3,5,7,9,11,13,-1,-1,-1,-1,-1,-1,-1,-1],"loss_changes":[1.0470409E12,3.2727315E11,1.7263965E11,6.3434654E10,7.434823E10,6.6532147E10,3.1544312E10,0E0,0E0,0E0,0E0,0E0,0E0,0E0,0E0],"parents":[2147483647,0,0,1,1,2,2,3,3,4,4,5,5,6,6],"right_children":[2,4,6,8,10,12,14,-1,-1,-1,-1,-1,-1,-1,-1],"split_conditions":[3.3491E4,2.8411E4,4.081E4,2.6342E4,8E0,3.5707E4,1.72E2,1.6931271E2,1.9489525E2,1.9841064E2,2.2456236E2,2.3391225E2,2.6050867E2,2.6016226E2,3.012195E2],"split_indices":[6,6,7,7,1,8,0,0,0,0,0,0,0,0,0],"split_type":[0,0,0,0,0,0,0,0,0,0,0,0,0,0,0],"sum_hessian":[1.45351E5,9.5694E4,4.9657E4,4.0029E4,5.5665E4,3.8178E4,1.1479E4,2.3276E4,1.6753E4,1.4961E4,4.0704E4,1.7673E4,2.0505E4,2.44E3,9.039E3],"tree_param":{"num_deleted":"0","num_feature":"9","num_nodes":"15","size_leaf_vector":"1"}},{"base_weights":[2.1897568E4,1.937433E4,2.4698639E4,1.7046277E4,2.058431E4,2.342337E4,2.7638453E4,1.5539601E2,1.7797472E2,1.91947E2,2.1422556E2,2.1926941E2,2.4488394E2,2.629033E2,2.9980075E2],"categories":[],"categories_nodes":[],"categories_segments":[],"categories_sizes":[],"default_left":[1,0,1,0,0,0,1,0,0,0,0,0,0,0,0],"id":38,"left_children":[1,3,5,7,9,11,13,-1,-1,-1,-1,-1,-1,-1,-1],"loss_changes":[1.0268327E12,2.1506503E11,2.5758479E11,2.932972E10,5.8198065E10,7.603644E10,6.4979206E10,0E0,0E0,0E0,0E0,0E0,0E0,0E0,0E0],"parents":[2147483647,0,0,1,1,2,2,3,3,4,4,5,5,6,6],"right_children":[2,4,6,8,10,12,14,-1,-1,-1,-1,-1,-1,-1,-1],"split_conditions":[3.1432E4,2.6436E4,3.7858E4,2.3582E4,8E0,3.3513E4,4.1296E4,1.5539601E2,1.7797472E2,1.91947E2,2.1422556E2,2.1926941E2,2.4488394E2,2.629033E2,2.9980075E2],"split_indices":[6,6,7,7,1,8,8,0,0,0,0,0,0,0,0],"split_type":[0,0,0,0,0,0,0,0,0,0,0,0,0,0,0],"sum_hessian":[1.45351E5,7.6472E4,6.8879E4,2.6158E4,5.0314E4,4.8046E4,2.0833E4,8.71E3,1.7448E4,1.894E4,3.1374E4,1.9986E4,2.806E4,1.3229E4,7.604E3],"tree_param":{"num_deleted":"0","num_feature":"9","num_nodes":"15","size_leaf_vector":"1"}},{"base_weights":[2.1678605E4,1.9781145E4,2.5334729E4,1.7735512E4,2.1392477E4,2.4328643E4,2.8678455E4,1.606269E2,1.8699269E2,1.9197296E2,2.2002669E2,2.2924721E2,2.553749E2,2.5484549E2,2.9537708E2],"categories":[],"categories_nodes":[],"categories_segments":[],"categories_sizes":[],"default_left":[1,0,1,0,0,0,0,0,0,0,0,0,0,0,0],"id":39,"left_children":[1,3,5,7,9,11,13,-1,-1,-1,-1,-1,-1,-1,-1],"loss_changes":[1.0078619E12,3.1504676E11,1.6635868E11,6.768768E10,7.127381E10,6.4208503E10,3.0751588E10,0E0,0E0,0E0,0E0,0E0,0E0,0E0,0E0],"parents":[2147483647,0,0,1,1,2,2,3,3,4,4,5,5,6,6],"right_children":[2,4,6,8,10,12,14,-1,-1,-1,-1,-1,-1,-1,-1],"split_conditions":[3.3491E4,2.8682E4,4.081E4,2.5544E4,7E0,3.5707E4,1.72E2,1.606269E2,1.8699269E2,1.9197296E2,2.2002669E2,2.2924721E2,2.553749E2,2.5484549E2,2.9537708E2],"split_indices":[6,6,7,8,1,8,0,0,0,0,0,0,0,0,0],"split_type":[0,0,0,0,0,0,0,0,0,0,0,0,0,0,0],"sum_hessian":[1.45351E5,9.5694E4,4.9657E4,4.217E4,5.3524E4,3.8178E4,1.1479E4,1.5421E4,2.6749E4,1.1649E4,4.1875E4,1.7673E4,2.0505E4,2.44E3,9.039E3],"tree_param":{"num_deleted":"0","num_feature":"9","num_nodes":"15","size_leaf_vector":"1"}},{"base_weights":[2.146183E4,1.8386955E4,2.3676086E4,1.6324499E4,1.945943E4,2.2330525E4,2.658817E4,1.5055893E2,1.7032658E2,1.8228584E2,2.0294165E2,1.8918262E2,2.293116E2,2.5410307E2,2.908715E2],"categories":[],"categories_nodes":[],"categories_segments":[],"categories_sizes":[],"default_left":[0,0,1,0,0,0,1,0,0,0,0,0,0,0,0],"id":40,"left_children":[1,3,5,7,9,11,13,-1,-1,-1,-1,-1,-1,-1,-1],"loss_changes":[9.892056E11,1.3429113E11,3.3050277E11,1.8451792E10,4.075815E10,1.1802981E11,7.784628E10,0E0,0E0,0E0,0E0,0E0,0E0,0E0,0E0],"parents":[2147483647,0,0,1,1,2,2,3,3,4,4,5,5,6,6],"right_children":[2,4,6,8,10,12,14,-1,-1,-1,-1,-1,-1,-1,-1],"split_conditions":[3.0764E4,2.5567E4,3.7101E4,2.2804E4,2.8925E4,7E0,4.0875E4,1.5055893E2,1.7032658E2,1.8228584E2,2.0294165E2,1.8918262E2,2.293116E2,2.5410307E2,2.908715E2],"split_indices":[6,6,6,6,8,1,8,0,0,0,0,0,0,0,0],"split_type":[0,0,0,0,0,0,0,0,0,0,0,0,0,0,0],"sum_hessian":[1.45351E5,6.0854E4,8.4497E4,2.0824E4,4.003E4,5.7799E4,2.6698E4,7.468E3,1.3356E4,1.6186E4,2.3844E4,8.656E3,4.9143E4,1.8153E4,8.545E3],"tree_param":{"num_deleted":"0","num_feature":"9","num_nodes":"15","size_leaf_vector":"1"}},{"base_weights":[2.1247225E4,1.9385688E4,2.4834129E4,1.738048E4,2.0965178E4,2.3843764E4,2.8125617E4,1.5735979E2,1.8327924E2,1.9063048E2,2.164203E2,2.2461644E2,2.503384E2,2.4978735E2,2.8972235E2],"categories":[],"categories_nodes":[],"categories_segments":[],"categories_sizes":[],"default_left":[1,0,1,0,0,0,0,0,0,0,0,0,0,0,0],"id":41,"left_children":[1,3,5,7,9,11,13,-1,-1,-1,-1,-1,-1,-1,-1],"loss_changes":[9.7005024E11,3.027239E11,1.6120178E11,6.541751E10,6.8499276E10,6.2235083E10,2.9861347E10,0E0,0E0,0E0,0E0,0E0,0E0,0E0,0E0],"parents":[2147483647,0,0,1,1,2,2,3,3,4,4,5,5,6,6],"right_children":[2,4,6,8,10,12,14,-1,-1,-1,-1,-1,-1,-1,-1],"split_conditions":[3.3491E4,2.8682E4,4.081E4,2.5544E4,8E0,3.5707E4,1.72E2,1.5735979E2,1.8327924E2,1.9063048E2,2.164203E2,2.2461644E2,2.503384E2,2.4978735E2,2.8972235E2],"split_indices":[6,6,7,8,1,8,0,0,0,0,0,0,0,0,0],"split_type":[0,0,0,0,0,0,0,0,0,0,0,0,0,0,0],"sum_hessian":[1.45351E5,9.5694E4,4.9657E4,4.217E4,5.3524E4,3.8178E4,1.1479E4,1.5421E4,2.6749E4,1.4055E4,3.9469E4,1.7673E4,2.0505E4,2.44E3,9.039E3],"tree_param":{"num_deleted":"0","num_feature":"9","num_nodes":"15","size_leaf_vector":"1"}},{"base_weights":[2.1034764E4,1.8018818E4,2.3206582E4,1.5992777E4,1.907236E4,2.1846754E4,2.598556E4,1.4740971E2,1.6691568E2,1.7682983E2,1.9786432E2,1.8517574E2,2.2441252E2,2.4839285E2,2.8494836E2],"categories":[],"categories_nodes":[],"categories_segments":[],"categories_sizes":[],"default_left":[0,0,1,0,0,0,1,0,0,0,0,0,0,0,0],"id":42,"left_children":[1,3,5,7,9,11,13,-1,-1,-1,-1,-1,-1,-1,-1],"loss_changes":[9.516498E11,1.2959141E11,3.1874613E11,1.7970495E10,3.936564E10,1.1188725E11,7.912974E10,0E0,0E0,0E0,0E0,0E0,0E0,0E0,0E0],"parents":[2147483647,0,0,1,1,2,2,3,3,4,4,5,5,6,6],"right_children":[2,4,6,8,10,12,14,-1,-1,-1,-1,-1,-1,-1,-1],"split_conditions":[3.0764E4,2.5567E4,3.6884E4,2.2804E4,2.8271E4,7E0,4.0875E4,1.4740971E2,1.6691568E2,1.7682983E2,1.9786432E2,1.8517574E2,2.2441252E2,2.4839285E2,2.8494836E2],"split_indices":[6,6,6,6,8,1,8,0,0,0,0,0,0,0,0],"split_type":[0,0,0,0,0,0,0,0,0,0,0,0,0,0,0],"sum_hessian":[1.45351E5,6.0854E4,8.4497E4,2.0824E4,4.003E4,5.6741E4,2.7756E4,7.468E3,1.3356E4,1.3598E4,2.6432E4,8.602E3,4.8139E4,1.906E4,8.696E3],"tree_param":{"num_deleted":"0","num_feature":"9","num_nodes":"15","size_leaf_vector":"1"}},{"base_weights":[2.0824428E4,1.9087002E4,2.4523838E4,1.7054629E4,2.0631121E4,2.3582654E4,2.7813367E4,1.5970613E2,1.8469273E2,1.8444504E2,2.1215077E2,2.3019403E2,2.6381677E2,2.3994409E2,2.8470773E2],"categories":[],"categories_nodes":[],"categories_segments":[],"categories_sizes":[],"default_left":[1,0,1,1,0,0,0,0,0,0,0,0,0,0,0],"id":43,"left_children":[1,3,5,7,9,11,13,-1,-1,-1,-1,-1,-1,-1,-1],"loss_changes":[9.337737E11,3.1003876E11,1.431453E11,6.519836E10,7.136818E10,5.633789E10,2.5243943E10,0E0,0E0,0E0,0E0,0E0,0E0,0E0,0E0],"parents":[2147483647,0,0,1,1,2,2,3,3,4,4,5,5,6,6],"right_children":[2,4,6,8,10,12,14,-1,-1,-1,-1,-1,-1,-1,-1],"split_conditions":[3.3913E4,2.8747E4,4.0875E4,2.6417E4,7E0,4.1688E4,1.58E2,1.5970613E2,1.8469273E2,1.8444504E2,2.1215077E2,2.3019403E2,2.6381677E2,2.3994409E2,2.8470773E2],"split_indices":[6,6,8,7,1,6,0,0,0,0,0,0,0,0,0],"split_type":[0,0,0,0,0,0,0,0,0,0,0,0,0,0,0],"sum_hessian":[1.45351E5,9.8906E4,4.6445E4,4.2707E4,5.6199E4,3.6119E4,1.0326E4,2.4186E4,1.8521E4,1.1852E4,4.4347E4,3.0076E4,6.043E3,1.522E3,8.804E3],"tree_param":{"num_deleted":"0","num_feature":"9","num_nodes":"15","size_leaf_vector":"1"}},{"base_weights":[2.0616195E4,1.8517049E4,2.3620023E4,1.63527E4,1.977745E4,2.2587195E4,2.682124E4,1.474726E2,1.7114397E2,1.8290123E2,2.0492659E2,2.0690018E2,2.3424416E2,2.4042244E2,2.7790018E2],"categories":[],"categories_nodes":[],"categories_segments":[],"categories_sizes":[],"default_left":[1,0,1,0,0,0,0,0,0,0,0,0,0,0,0],"id":44,"left_children":[1,3,5,7,9,11,13,-1,-1,-1,-1,-1,-1,-1,-1],"loss_changes":[9.1607794E11,2.3309425E11,1.9707147E11,3.826254E10,5.71411E10,7.132624E10,3.8582354E10,0E0,0E0,0E0,0E0,0E0,0E0,0E0,0E0],"parents":[2147483647,0,0,1,1,2,2,3,3,4,4,5,5,6,6],"right_children":[2,4,6,8,10,12,14,-1,-1,-1,-1,-1,-1,-1,-1],"split_conditions":[3.2327E4,2.7232E4,3.9671E4,2.3417E4,8E0,3.3021E4,1.72E2,1.474726E2,1.7114397E2,1.8290123E2,2.0492659E2,2.0690018E2,2.3424416E2,2.4042244E2,2.7790018E2],"split_indices":[6,6,7,6,1,8,0,0,0,0,0,0,0,0,0],"split_type":[0,0,0,0,0,0,0,0,0,0,0,0,0,0,0],"sum_hessian":[1.45351E5,8.5564E4,5.9787E4,3.1495E4,5.4069E4,4.5209E4,1.4578E4,1.0141E4,2.1354E4,1.7566E4,3.6503E4,1.385E4,3.1359E4,3.775E3,1.0803E4],"tree_param":{"num_deleted":"0","num_feature":"9","num_nodes":"15","size_leaf_vector":"1"}},{"base_weights":[2.0410045E4,1.7317764E4,2.2411627E4,1.5389287E4,1.82949E4,2.1119297E4,2.52266E4,1.4484161E2,1.6274734E2,1.7043402E2,1.903546E2,1.8031593E2,2.1687967E2,2.4324574E2,2.8263037E2],"categories":[],"categories_nodes":[],"categories_segments":[],"categories_sizes":[],"default_left":[0,0,1,1,0,0,1,0,0,0,0,0,0,0,0],"id":45,"left_children":[1,3,5,7,9,11,13,-1,-1,-1,-1,-1,-1,-1,-1],"loss_changes":[8.99263E11,1.0735216E11,3.204574E11,1.5164506E10,3.4805383E10,1.0580132E11,7.533809E10,0E0,0E0,0E0,0E0,0E0,0E0,0E0,0E0],"parents":[2147483647,0,0,1,1,2,2,3,3,4,4,5,5,6,6],"right_children":[2,4,6,8,10,12,14,-1,-1,-1,-1,-1,-1,-1,-1],"split_conditions":[3.0377E4,2.5264E4,3.6884E4,2.3582E4,2.8271E4,7E0,4.2866E4,1.4484161E2,1.6274734E2,1.7043402E2,1.903546E2,1.8031593E2,2.1687967E2,2.4324574E2,2.8263037E2],"split_indices":[6,6,6,7,8,1,8,0,0,0,0,0,0,0,0],"split_type":[0,0,0,0,0,0,0,0,0,0,0,0,0,0,0],"sum_hessian":[1.45351E5,5.7118E4,8.8233E4,1.9214E4,3.7904E4,6.0477E4,2.7756E4,9.51E3,9.704E3,1.41E4,2.3804E4,9.411E3,5.1066E4,2.1406E4,6.35E3],"tree_param":{"num_deleted":"0","num_feature":"9","num_nodes":"15","size_leaf_vector":"1"}},{"base_weights":[2.0205955E4,1.8516955E4,2.3802254E4,1.6543768E4,2.001611E4,2.2828049E4,2.6836305E4,1.487541E2,1.7420146E2,1.8138219E2,2.0658623E2,2.1465549E2,2.3933821E2,2.374373E2,2.764852E2],"categories":[],"categories_nodes":[],"categories_segments":[],"categories_sizes":[],"default_left":[1,0,1,0,0,0,0,0,0,0,0,0,0,0,0],"id":46,"left_children":[1,3,5,7,9,11,13,-1,-1,-1,-1,-1,-1,-1,-1],"loss_changes":[8.824522E11,2.9224442E11,1.366693E11,6.21858E10,6.7433923E10,5.246655E10,2.7684504E10,0E0,0E0,0E0,0E0,0E0,0E0,0E0,0E0],"parents":[2147483647,0,0,1,1,2,2,3,3,4,4,5,5,6,6],"right_children":[2,4,6,8,10,12,14,-1,-1,-1,-1,-1,-1,-1,-1],"split_conditions":[3.3913E4,2.8747E4,4.081E4,2.5334E4,8E0,3.5707E4,1.72E2,1.487541E2,1.7420146E2,1.8138219E2,2.0658623E2,2.1465549E2,2.3933821E2,2.374373E2,2.764852E2],"split_indices":[6,6,7,8,1,8,0,0,0,0,0,0,0,0,0],"split_type":[0,0,0,0,0,0,0,0,0,0,0,0,0,0,0],"sum_hessian":[1.45351E5,9.8906E4,4.6445E4,4.2707E4,5.6199E4,3.5163E4,1.1282E4,1.4714E4,2.7993E4,1.4334E4,4.1865E4,1.5762E4,1.9401E4,2.353E3,8.929E3],"tree_param":{"num_deleted":"0","num_feature":"9","num_nodes":"15","size_leaf_vector":"1"}},{"base_weights":[2.0003908E4,1.7127941E4,2.2074926E4,1.5192591E4,1.8134324E4,2.093965E4,2.5117904E4,1.4230592E2,1.6052357E2,1.7033383E2,1.8970622E2,1.8033206E2,2.1577284E2,2.3887027E2,2.7166495E2],"categories":[],"categories_nodes":[],"categories_segments":[],"categories_sizes":[],"default_left":[0,0,1,1,0,0,1,0,0,0,0,0,0,0,0],"id":47,"left_children":[1,3,5,7,9,11,13,-1,-1,-1,-1,-1,-1,-1,-1],"loss_changes":[8.653604E11,1.1825001E11,2.913825E11,1.6995844E10,3.6534485E10,1.1366983E11,5.723128E10,0E0,0E0,0E0,0E0,0E0,0E0,0E0,0E0],"parents":[2147483647,0,0,1,1,2,2,3,3,4,4,5,5,6,6],"right_children":[2,4,6,8,10,12,14,-1,-1,-1,-1,-1,-1,-1,-1],"split_conditions":[3.0764E4,2.5567E4,3.7924E4,2.3582E4,2.9201E4,8E0,4.0283E4,1.4230592E2,1.6052357E2,1.7033383E2,1.8970622E2,1.8033206E2,2.1577284E2,2.3887027E2,2.7166495E2],"split_indices":[6,6,6,7,8,1,8,0,0,0,0,0,0,0,0],"split_type":[0,0,0,0,0,0,0,0,0,0,0,0,0,0,0],"sum_hessian":[1.45351E5,6.0854E4,8.4497E4,2.0824E4,4.003E4,6.1544E4,2.2953E4,9.836E3,1.0988E4,1.729E4,2.274E4,1.1078E4,5.0466E4,1.4346E4,8.607E3],"tree_param":{"num_deleted":"0","num_feature":"9","num_nodes":"15","size_leaf_vector":"1"}},{"base_weights":[1.9803879E4,1.8146416E4,2.3333031E4,1.6212658E4,1.9615611E4,2.2445824E4,2.6561422E4,1.5165656E2,1.7579013E2,1.7529932E2,2.0172614E2,2.104171E2,2.354795E2,2.34237E2,2.7294382E2],"categories":[],"categories_nodes":[],"categories_segments":[],"categories_sizes":[],"default_left":[1,0,1,1,0,0,0,0,0,0,0,0,0,0,0],"id":48,"left_children":[1,3,5,7,9,11,13,-1,-1,-1,-1,-1,-1,-1,-1],"loss_changes":[8.4980374E11,2.8068282E11,1.3244144E11,6.083104E10,6.4936215E10,5.5895392E10,2.237504E10,0E0,0E0,0E0,0E0,0E0,0E0,0E0,0E0],"parents":[2147483647,0,0,1,1,2,2,3,3,4,4,5,5,6,6],"right_children":[2,4,6,8,10,12,14,-1,-1,-1,-1,-1,-1,-1,-1],"split_conditions":[3.3913E4,2.8747E4,4.1459E4,2.6417E4,7E0,3.5707E4,1.72E2,1.5165656E2,1.7579013E2,1.7529932E2,2.0172614E2,2.104171E2,2.354795E2,2.34237E2,2.7294382E2],"split_indices":[6,6,7,7,1,8,0,0,0,0,0,0,0,0,0],"split_type":[0,0,0,0,0,0,0,0,0,0,0,0,0,0,0],"sum_hessian":[1.45351E5,9.8906E4,4.6445E4,4.2707E4,5.6199E4,3.6439E4,1.0006E4,2.4186E4,1.8521E4,1.1852E4,4.4347E4,1.6033E4,2.0406E4,1.901E3,8.105E3],"tree_param":{"num_deleted":"0","num_feature":"9","num_nodes":"15","size_leaf_vector":"1"}},{"base_weights":[1.9605852E4,1.74794E4,2.2303365E4,1.5445804E4,1.8660309E4,2.1212254E4,2.5182328E4,1.4199083E2,1.6402847E2,1.7009988E2,1.9368202E2,1.95714E2,2.209736E2,2.4067976E2,2.739653E2],"categories":[],"categories_nodes":[],"categories_segments":[],"categories_sizes":[],"default_left":[1,0,1,0,0,0,0,0,0,0,0,0,0,0,0],"id":49,"left_children":[1,3,5,7,9,11,13,-1,-1,-1,-1,-1,-1,-1,-1],"loss_changes":[8.3336626E11,1.949156E11,2.0072471E11,3.5403596E10,5.973947E10,6.705434E10,4.277456E10,0E0,0E0,0E0,0E0,0E0,0E0,0E0,0E0],"parents":[2147483647,0,0,1,1,2,2,3,3,4,4,5,5,6,6],"right_children":[2,4,6,8,10,12,14,-1,-1,-1,-1,-1,-1,-1,-1],"split_conditions":[3.1903E4,2.7628E4,3.8283E4,2.5031E4,7E0,3.2949E4,4.2512E4,1.4199083E2,1.6402847E2,1.7009988E2,1.9368202E2,1.95714E2,2.209736E2,2.4067976E2,2.739653E2],"split_indices":[6,7,8,8,1,7,7,0,0,0,0,0,0,0,0],"split_type":[0,0,0,0,0,0,0,0,0,0,0,0,0,0,0],"sum_hessian":[1.45351E5,8.1283E4,6.4068E4,2.9866E4,5.1417E4,4.6466E4,1.7602E4,1.2977E4,1.6889E4,1.5442E4,3.5975E4,1.629E4,3.0176E4,1.1717E4,5.885E3],"tree_param":{"num_deleted":"0","num_feature":"9","num_nodes":"15","size_leaf_vector":"1"}},{"base_weights":[1.9409805E4,1.7783697E4,2.287219E4,1.5886094E4,1.9225426E4,2.2018547E4,2.6143277E4,1.4858737E2,1.7226813E2,1.7180023E2,1.9771672E2,2.1599464E2,2.5610226E2,2.2358623E2,2.6800775E2],"categories":[],"categories_nodes":[],"categories_segments":[],"categories_sizes":[],"default_left":[1,0,0,1,0,1,0,0,0,0,0,0,0,0,0],"id":50,"left_children":[1,3,5,7,9,11,13,-1,-1,-1,-1,-1,-1,-1,-1],"loss_changes":[8.179522E11,2.7028724E11,1.29117454E11,5.857031E10,6.2453187E10,5.4899245E10,2.3307223E10,0E0,0E0,0E0,0E0,0E0,0E0,0E0,0E0],"parents":[2147483647,0,0,1,1,2,2,3,3,4,4,5,5,6,6],"right_children":[2,4,6,8,10,12,14,-1,-1,-1,-1,-1,-1,-1,-1],"split_conditions":[3.3913E4,2.8747E4,4.2509E4,2.6417E4,7E0,4.2565E4,1.65E2,1.4858737E2,1.7226813E2,1.7180023E2,1.9771672E2,2.1599464E2,2.5610226E2,2.2358623E2,2.6800775E2],"split_indices":[6,6,6,7,1,8,0,0,0,0,0,0,0,0,0],"split_type":[0,0,0,0,0,0,0,0,0,0,0,0,0,0,0],"sum_hessian":[1.45351E5,9.8906E4,4.6445E4,4.2707E4,5.6199E4,3.6839E4,9.606E3,2.4186E4,1.8521E4,1.1852E4,4.4347E4,3.2996E4,3.843E3,1.427E3,8.179E3],"tree_param":{"num_deleted":"0","num_feature":"9","num_nodes":"15","size_leaf_vector":"1"}},{"base_weights":[1.9215719E4,1.6294271E4,2.1106723E4,1.4421526E4,1.720449E4,1.9935691E4,2.3913236E4,1.3097882E2,1.4972554E2,1.6013908E2,1.792E2,1.691726E2,2.0486958E2,2.2748642E2,2.6142697E2],"categories":[],"categories_nodes":[],"categories_segments":[],"categories_sizes":[],"default_left":[0,0,1,0,0,0,1,0,0,0,0,0,0,0,0],"id":51,"left_children":[1,3,5,7,9,11,13,-1,-1,-1,-1,-1,-1,-1,-1],"loss_changes":[8.026514E11,9.711701E10,2.8950344E11,1.3434094E10,3.2452379E10,1.03255376E11,6.683833E10,0E0,0E0,0E0,0E0,0E0,0E0,0E0,0E0],"parents":[2147483647,0,0,1,1,2,2,3,3,4,4,5,5,6,6],"right_children":[2,4,6,8,10,12,14,-1,-1,-1,-1,-1,-1,-1,-1],"split_conditions":[3.0377E4,2.5168E4,3.6744E4,2.2719E4,2.8271E4,7E0,4.0875E4,1.3097882E2,1.4972554E2,1.6013908E2,1.792E2,1.691726E2,2.0486958E2,2.2748642E2,2.6142697E2],"split_indices":[6,6,7,7,8,1,8,0,0,0,0,0,0,0,0],"split_type":[0,0,0,0,0,0,0,0,0,0,0,0,0,0,0],"sum_hessian":[1.45351E5,5.7118E4,8.8233E4,1.8687E4,3.8431E4,6.2262E4,2.5971E4,5.5E3,1.3187E4,1.4435E4,2.3996E4,9.62E3,5.2642E4,1.7067E4,8.904E3],"tree_param":{"num_deleted":"0","num_feature":"9","num_nodes":"15","size_leaf_vector":"1"}},{"base_weights":[1.902357E4,1.7426877E4,2.2423332E4,1.5568472E4,1.883882E4,2.1582385E4,2.5645785E4,1.4030507E2,1.6440656E2,1.70671E2,1.9445012E2,2.118711E2,2.5246487E2,2.1916194E2,2.6293732E2],"categories":[],"categories_nodes":[],"categories_segments":[],"categories_sizes":[],"default_left":[1,0,0,0,0,1,0,0,0,0,0,0,0,0,0],"id":52,"left_children":[1,3,5,7,9,11,13,-1,-1,-1,-1,-1,-1,-1,-1],"loss_changes":[7.886382E11,2.5923315E11,1.2531112E11,5.7058263E10,6.002678E10,5.2822016E10,2.2639804E10,0E0,0E0,0E0,0E0,0E0,0E0,0E0,0E0],"parents":[2147483647,0,0,1,1,2,2,3,3,4,4,5,5,6,6],"right_children":[2,4,6,8,10,12,14,-1,-1,-1,-1,-1,-1,-1,-1],"split_conditions":[3.3913E4,2.8747E4,4.2509E4,2.5544E4,8E0,4.2866E4,1.65E2,1.4030507E2,1.6440656E2,1.70671E2,1.9445012E2,2.118711E2,2.5246487E2,2.1916194E2,2.6293732E2],"split_indices":[6,6,6,8,1,8,0,0,0,0,0,0,0,0,0],"split_type":[0,0,0,0,0,0,0,0,0,0,0,0,0,0,0],"sum_hessian":[1.45351E5,9.8906E4,4.6445E4,4.2707E4,5.6199E4,3.6839E4,9.606E3,1.5461E4,2.7246E4,1.4334E4,4.1865E4,3.3258E4,3.581E3,1.427E3,8.179E3],"tree_param":{"num_deleted":"0","num_feature":"9","num_nodes":"15","size_leaf_vector":"1"}},{"base_weights":[1.8833348E4,1.7124498E4,2.1949041E4,1.5469802E4,1.8732396E4,2.0915994E4,2.4671846E4,1.4018073E2,1.6348746E2,1.6723119E2,1.9419263E2,1.9988892E2,2.222616E2,2.1487292E2,2.5416875E2],"categories":[],"categories_nodes":[],"categories_segments":[],"categories_sizes":[],"default_left":[1,0,1,0,0,1,0,0,0,0,0,0,0,0,0],"id":53,"left_children":[1,3,5,7,9,11,13,-1,-1,-1,-1,-1,-1,-1,-1],"loss_changes":[7.7351354E11,2.4946881E11,1.4428825E11,5.8809385E10,6.5375568E10,4.489478E10,3.3035387E10,0E0,0E0,0E0,0E0,0E0,0E0,0E0,0E0],"parents":[2147483647,0,0,1,1,2,2,3,3,4,4,5,5,6,6],"right_children":[2,4,6,8,10,12,14,-1,-1,-1,-1,-1,-1,-1,-1],"split_conditions":[3.2949E4,2.9498E4,3.9406E4,2.4966E4,8E0,3.5984E4,1.5E2,1.4018073E2,1.6348746E2,1.6723119E2,1.9419263E2,1.9988892E2,2.222616E2,2.1487292E2,2.5416875E2],"split_indices":[7,6,8,6,1,6,0,0,0,0,0,0,0,0,0],"split_type":[0,0,0,0,0,0,0,0,0,0,0,0,0,0,0],"sum_hessian":[1.45351E5,9.3872E4,5.1479E4,4.6268E4,4.7604E4,3.7326E4,1.4153E4,1.7455E4,2.8813E4,1.2134E4,3.547E4,2.1868E4,1.5458E4,2.689E3,1.1464E4],"tree_param":{"num_deleted":"0","num_feature":"9","num_nodes":"15","size_leaf_vector":"1"}},{"base_weights":[1.8645023E4,1.6930191E4,2.169372E4,1.4867419E4,1.8101432E4,2.0722613E4,2.4525371E4,1.3502031E2,1.5761676E2,1.6286009E2,1.8733958E2,1.8753285E2,2.1394524E2,2.1398267E2,2.5293405E2],"categories":[],"categories_nodes":[],"categories_segments":[],"categories_sizes":[],"default_left":[1,0,0,0,0,0,0,0,0,0,0,0,0,0,0],"id":54,"left_children":[1,3,5,7,9,11,13,-1,-1,-1,-1,-1,-1,-1,-1],"loss_changes":[7.595339E11,2.2449383E11,1.433697E11,4.0932737E10,6.7828187E10,5.116107E10,3.1535923E10,0E0,0E0,0E0,0E0,0E0,0E0,0E0,0E0],"parents":[2147483647,0,0,1,1,2,2,3,3,4,4,5,5,6,6],"right_children":[2,4,6,8,10,12,14,-1,-1,-1,-1,-1,-1,-1,-1],"split_conditions":[3.3173E4,2.8145E4,4.0791E4,2.5031E4,7E0,3.2892E4,1.65E2,1.3502031E2,1.5761676E2,1.6286009E2,1.8733958E2,1.8753285E2,2.1394524E2,2.1398267E2,2.5293405E2],"split_indices":[6,7,6,8,1,8,0,0,0,0,0,0,0,0,0],"split_type":[0,0,0,0,0,0,0,0,0,0,0,0,0,0,0],"sum_hessian":[1.45351E5,9.303E4,5.2321E4,3.3697E4,5.9333E4,3.8966E4,1.3355E4,1.3342E4,2.0355E4,1.5338E4,4.3995E4,9.92E3,2.9046E4,2.639E3,1.0716E4],"tree_param":{"num_deleted":"0","num_feature":"9","num_nodes":"15","size_leaf_vector":"1"}},{"base_weights":[1.8458584E4,1.678023E4,2.151868E4,1.5093366E4,1.8297963E4,2.0502664E4,2.4196596E4,1.3459734E2,1.5828023E2,1.6387988E2,1.8966869E2,1.9595476E2,2.178469E2,2.1721397E2,2.5128252E2],"categories":[],"categories_nodes":[],"categories_segments":[],"categories_sizes":[],"default_left":[1,0,1,0,0,1,0,0,0,0,0,0,0,0,0],"id":55,"left_children":[1,3,5,7,9,11,13,-1,-1,-1,-1,-1,-1,-1,-1],"loss_changes":[7.461541E11,2.400568E11,1.3957176E11,5.315127E10,6.2813897E10,4.2986373E10,3.2093241E10,0E0,0E0,0E0,0E0,0E0,0E0,0E0,0E0],"parents":[2147483647,0,0,1,1,2,2,3,3,4,4,5,5,6,6],"right_children":[2,4,6,8,10,12,14,-1,-1,-1,-1,-1,-1,-1,-1],"split_conditions":[3.2949E4,2.9251E4,3.9406E4,2.4213E4,8E0,3.5984E4,1.72E2,1.3459734E2,1.5828023E2,1.6387988E2,1.8966869E2,1.9595476E2,2.178469E2,2.1721397E2,2.5128252E2],"split_indices":[7,6,8,6,1,6,0,0,0,0,0,0,0,0,0],"split_type":[0,0,0,0,0,0,0,0,0,0,0,0,0,0,0],"sum_hessian":[1.45351E5,9.3872E4,5.1479E4,4.4464E4,4.9408E4,3.7326E4,1.4153E4,1.3799E4,3.0665E4,1.2822E4,3.6586E4,2.1868E4,1.5458E4,3.877E3,1.0276E4],"tree_param":{"num_deleted":"0","num_feature":"9","num_nodes":"15","size_leaf_vector":"1"}},{"base_weights":[1.8274008E4,1.6735664E4,2.1549525E4,1.4725832E4,1.794935E4,2.0711256E4,2.4599895E4,1.3341609E2,1.5633182E2,1.597463E2,1.8561777E2,1.9375366E2,2.175986E2,2.1608138E2,2.5298846E2],"categories":[],"categories_nodes":[],"categories_segments":[],"categories_sizes":[],"default_left":[1,0,1,0,0,0,0,0,0,0,0,0,0,0,0],"id":56,"left_children":[1,3,5,7,9,11,13,-1,-1,-1,-1,-1,-1,-1,-1],"loss_changes":[7.3204865E11,2.4099842E11,1.18256304E11,4.6570406E10,7.427693E10,5.06242E10,2.0379075E10,0E0,0E0,0E0,0E0,0E0,0E0,0E0,0E0],"parents":[2147483647,0,0,1,1,2,2,3,3,4,4,5,5,6,6],"right_children":[2,4,6,8,10,12,14,-1,-1,-1,-1,-1,-1,-1,-1],"split_conditions":[3.3913E4,2.8641E4,4.1459E4,2.5334E4,7E0,3.5707E4,1.72E2,1.3341609E2,1.5633182E2,1.597463E2,1.8561777E2,1.9375366E2,2.175986E2,2.1608138E2,2.5298846E2],"split_indices":[6,7,7,8,1,8,0,0,0,0,0,0,0,0,0],"split_type":[0,0,0,0,0,0,0,0,0,0,0,0,0,0,0],"sum_hessian":[1.45351E5,9.8906E4,4.6445E4,3.7244E4,6.1662E4,3.6439E4,1.0006E4,1.4753E4,2.2491E4,1.4603E4,4.7059E4,1.6033E4,2.0406E4,1.901E3,8.105E3],"tree_param":{"num_deleted":"0","num_feature":"9","num_nodes":"15","size_leaf_vector":"1"}},{"base_weights":[1.809128E4,1.64431E4,2.109636E4,1.4850482E4,1.7990674E4,2.0098158E4,2.3727328E4,1.3447858E2,1.56997E2,1.605454E2,1.8652536E2,1.9210251E2,2.135293E2,2.0635017E2,2.4450798E2],"categories":[],"categories_nodes":[],"categories_segments":[],"categories_sizes":[],"default_left":[1,0,1,0,0,1,0,0,0,0,0,0,0,0,0],"id":57,"left_children":[1,3,5,7,9,11,13,-1,-1,-1,-1,-1,-1,-1,-1],"loss_changes":[7.195706E11,2.3110196E11,1.3472314E11,5.4900294E10,6.070416E10,4.117758E10,3.1160009E10,0E0,0E0,0E0,0E0,0E0,0E0,0E0,0E0],"parents":[2147483647,0,0,1,1,2,2,3,3,4,4,5,5,6,6],"right_children":[2,4,6,8,10,12,14,-1,-1,-1,-1,-1,-1,-1,-1],"split_conditions":[3.2949E4,2.9498E4,3.9406E4,2.4966E4,8E0,3.5984E4,1.5E2,1.3447858E2,1.56997E2,1.605454E2,1.8652536E2,1.9210251E2,2.135293E2,2.0635017E2,2.4450798E2],"split_indices":[7,6,8,6,1,6,0,0,0,0,0,0,0,0,0],"split_type":[0,0,0,0,0,0,0,0,0,0,0,0,0,0,0],"sum_hessian":[1.45351E5,9.3872E4,5.1479E4,4.6268E4,4.7604E4,3.7326E4,1.4153E4,1.7455E4,2.8813E4,1.2134E4,3.547E4,2.1868E4,1.5458E4,2.689E3,1.1464E4],"tree_param":{"num_deleted":"0","num_feature":"9","num_nodes":"15","size_leaf_vector":"1"}},{"base_weights":[1.7910377E4,1.53125205E4,1.9781127E4,1.35876045E4,1.6240491E4,1.86535E4,2.2352768E4,1.2470886E2,1.4275153E2,1.5501207E2,1.7291226E2,1.5638385E2,1.918711E2,2.1536176E2,2.5241826E2],"categories":[],"categories_nodes":[],"categories_segments":[],"categories_sizes":[],"default_left":[0,0,1,1,1,0,0,0,0,0,0,0,0,0,0],"id":58,"left_children":[1,3,5,7,9,11,13,-1,-1,-1,-1,-1,-1,-1,-1],"loss_changes":[7.060985E11,9.7188315E10,2.44616E11,1.6170877E10,3.0464279E10,9.421875E10,6.0209234E10,0E0,0E0,0E0,0E0,0E0,0E0,0E0,0E0],"parents":[2147483647,0,0,1,1,2,2,3,3,4,4,5,5,6,6],"right_children":[2,4,6,8,10,12,14,-1,-1,-1,-1,-1,-1,-1,-1],"split_conditions":[3.0764E4,2.6625E4,3.6744E4,2.3582E4,2.948E4,7E0,4.3846E4,1.2470886E2,1.4275153E2,1.5501207E2,1.7291226E2,1.5638385E2,1.918711E2,2.1536176E2,2.5241826E2],"split_indices":[6,8,7,7,7,1,6,0,0,0,0,0,0,0,0],"split_type":[0,0,0,0,0,0,0,0,0,0,0,0,0,0,0],"sum_hessian":[1.45351E5,6.0854E4,8.4497E4,2.1292E4,3.9562E4,5.8746E4,2.5751E4,8.121E3,1.3171E4,2.3232E4,1.633E4,8.838E3,4.9908E4,2.0083E4,5.668E3],"tree_param":{"num_deleted":"0","num_feature":"9","num_nodes":"15","size_leaf_vector":"1"}},{"base_weights":[1.7731283E4,1.6271693E4,2.1001742E4,1.4353741E4,1.7485605E4,2.0187523E4,2.3986492E4,1.332558E2,1.5490283E2,1.6071103E2,1.812913E2,1.9803468E2,2.3615996E2,2.0420354E2,2.4606108E2],"categories":[],"categories_nodes":[],"categories_segments":[],"categories_sizes":[],"default_left":[1,0,0,1,0,1,0,0,0,0,0,0,0,0,0],"id":59,"left_children":[1,3,5,7,9,11,13,-1,-1,-1,-1,-1,-1,-1,-1],"loss_changes":[6.93503E11,2.3374437E11,1.0850874E11,4.532155E10,5.5729717E10,4.5937066E10,2.0725629E10,0E0,0E0,0E0,0E0,0E0,0E0,0E0,0E0],"parents":[2147483647,0,0,1,1,2,2,3,3,4,4,5,5,6,6],"right_children":[2,4,6,8,10,12,14,-1,-1,-1,-1,-1,-1,-1,-1],"split_conditions":[3.4118E4,2.8266E4,4.2509E4,2.5726E4,9E0,4.2866E4,1.65E2,1.332558E2,1.5490283E2,1.6071103E2,1.812913E2,1.9803468E2,2.3615996E2,2.0420354E2,2.4606108E2],"split_indices":[6,6,6,7,1,8,0,0,0,0,0,0,0,0,0],"split_type":[0,0,0,0,0,0,0,0,0,0,0,0,0,0,0],"sum_hessian":[1.45351E5,1.00503E5,4.4848E4,3.896E4,6.1543E4,3.5242E4,9.606E3,2.0462E4,1.8498E4,1.9252E4,4.2291E4,3.1698E4,3.544E3,1.427E3,8.179E3],"tree_param":{"num_deleted":"0","num_feature":"9","num_nodes":"15","size_leaf_vector":"1"}},{"base_weights":[1.755398E4,1.5948803E4,2.0480656E4,1.4404423E4,1.7449506E4,1.9337623E4,2.267137E4,1.2947038E2,1.5185898E2,1.556674E2,1.8093126E2,1.8548982E2,2.0550476E2,2.1813899E2,2.517427E2],"categories":[],"categories_nodes":[],"categories_segments":[],"categories_sizes":[],"default_left":[1,0,1,0,0,1,0,0,0,0,0,0,0,0,0],"id":60,"left_children":[1,3,5,7,9,11,13,-1,-1,-1,-1,-1,-1,-1,-1],"loss_changes":[6.825097E11,2.1731108E11,1.28469434E11,5.2499055E10,5.740639E10,3.1982617E10,3.731987E10,0E0,0E0,0E0,0E0,0E0,0E0,0E0,0E0],"parents":[2147483647,0,0,1,1,2,2,3,3,4,4,5,5,6,6],"right_children":[2,4,6,8,10,12,14,-1,-1,-1,-1,-1,-1,-1,-1],"split_conditions":[3.2949E4,2.9498E4,3.8169E4,2.5643E4,8E0,3.5984E4,4.4224E4,1.2947038E2,1.5185898E2,1.556674E2,1.8093126E2,1.8548982E2,2.0550476E2,2.1813899E2,2.517427E2],"split_indices":[7,6,8,8,1,6,6,0,0,0,0,0,0,0,0],"split_type":[0,0,0,0,0,0,0,0,0,0,0,0,0,0,0],"sum_hessian":[1.45351E5,9.3872E4,5.1479E4,4.6268E4,4.7604E4,3.3835E4,1.7644E4,1.6156E4,3.0112E4,1.2134E4,3.547E4,2.0513E4,1.3322E4,1.3149E4,4.495E3],"tree_param":{"num_deleted":"0","num_feature":"9","num_nodes":"15","size_leaf_vector":"1"}},{"base_weights":[1.7378451E4,1.5789321E4,2.0275865E4,1.42004E4,1.721893E4,1.9310475E4,2.282037E4,1.2589596E2,1.4884848E2,1.5415459E2,1.7850539E2,1.8457341E2,2.0516103E2,1.9803203E2,2.3526286E2],"categories":[],"categories_nodes":[],"categories_segments":[],"categories_sizes":[],"default_left":[1,0,1,0,0,1,0,0,0,0,0,0,0,0,0],"id":61,"left_children":[1,3,5,7,9,11,13,-1,-1,-1,-1,-1,-1,-1,-1],"loss_changes":[6.6893696E11,2.1299305E11,1.2601577E11,4.883533E10,5.600654E10,3.8015074E10,2.9679944E10,0E0,0E0,0E0,0E0,0E0,0E0,0E0,0E0],"parents":[2147483647,0,0,1,1,2,2,3,3,4,4,5,5,6,6],"right_children":[2,4,6,8,10,12,14,-1,-1,-1,-1,-1,-1,-1,-1],"split_conditions":[3.2949E4,2.9251E4,3.9406E4,2.4102E4,8E0,3.5984E4,1.5E2,1.2589596E2,1.4884848E2,1.5415459E2,1.7850539E2,1.8457341E2,2.0516103E2,1.9803203E2,2.3526286E2],"split_indices":[7,6,8,6,1,6,0,0,0,0,0,0,0,0,0],"split_type":[0,0,0,0,0,0,0,0,0,0,0,0,0,0,0],"sum_hessian":[1.45351E5,9.3872E4,5.1479E4,4.4464E4,4.9408E4,3.7326E4,1.4153E4,1.3265E4,3.1199E4,1.2822E4,3.6586E4,2.1868E4,1.5458E4,2.689E3,1.1464E4],"tree_param":{"num_deleted":"0","num_feature":"9","num_nodes":"15","size_leaf_vector":"1"}},{"base_weights":[1.7204676E4,1.5784662E4,2.0386459E4,1.3850839E4,1.69273E4,1.959087E4,2.3302934E4,1.2526205E2,1.4716881E2,1.5031021E2,1.7503459E2,1.9216205E2,2.2935562E2,1.9806636E2,2.3910442E2],"categories":[],"categories_nodes":[],"categories_segments":[],"categories_sizes":[],"default_left":[1,0,0,0,0,1,0,0,0,0,0,0,0,0,0],"id":62,"left_children":[1,3,5,7,9,11,13,-1,-1,-1,-1,-1,-1,-1,-1],"loss_changes":[6.564044E11,2.2184722E11,1.036077E11,4.264506E10,6.875303E10,4.372457E10,1.9931857E10,0E0,0E0,0E0,0E0,0E0,0E0,0E0,0E0],"parents":[2147483647,0,0,1,1,2,2,3,3,4,4,5,5,6,6],"right_children":[2,4,6,8,10,12,14,-1,-1,-1,-1,-1,-1,-1,-1],"split_conditions":[3.4118E4,2.8641E4,4.2509E4,2.5334E4,7E0,4.2866E4,1.65E2,1.2526205E2,1.4716881E2,1.5031021E2,1.7503459E2,1.9216205E2,2.2935562E2,1.9806636E2,2.3910442E2],"split_indices":[6,7,6,8,1,8,0,0,0,0,0,0,0,0,0],"split_type":[0,0,0,0,0,0,0,0,0,0,0,0,0,0,0],"sum_hessian":[1.45351E5,1.00503E5,4.4848E4,3.7333E4,6.317E4,3.5242E4,9.606E3,1.4765E4,2.2568E4,1.4727E4,4.8443E4,3.1698E4,3.544E3,1.427E3,8.179E3],"tree_param":{"num_deleted":"0","num_feature":"9","num_nodes":"15","size_leaf_vector":"1"}},{"base_weights":[1.7032639E4,1.5471748E4,1.9878568E4,1.3985772E4,1.6943217E4,1.8728146E4,2.1943537E4,1.2630884E2,1.479368E2,1.5091823E2,1.7572792E2,1.7982237E2,1.9899306E2,2.1114046E2,2.4439154E2],"categories":[],"categories_nodes":[],"categories_segments":[],"categories_sizes":[],"default_left":[1,0,1,0,0,1,0,0,0,0,0,0,0,0,0],"id":63,"left_children":[1,3,5,7,9,11,13,-1,-1,-1,-1,-1,-1,-1,-1],"loss_changes":[6.4537756E11,2.0502177E11,1.2188438E11,5.0945065E10,5.470526E10,2.8529656E10,3.7600887E10,0E0,0E0,0E0,0E0,0E0,0E0,0E0,0E0],"parents":[2147483647,0,0,1,1,2,2,3,3,4,4,5,5,6,6],"right_children":[2,4,6,8,10,12,14,-1,-1,-1,-1,-1,-1,-1,-1],"split_conditions":[3.2949E4,2.9565E4,3.793E4,2.4966E4,8E0,3.5984E4,4.4224E4,1.2630884E2,1.479368E2,1.5091823E2,1.7572792E2,1.7982237E2,1.9899306E2,2.1114046E2,2.4439154E2],"split_indices":[7,6,8,6,1,6,6,0,0,0,0,0,0,0,0],"split_type":[0,0,0,0,0,0,0,0,0,0,0,0,0,0,0],"sum_hessian":[1.45351E5,9.3872E4,5.1479E4,4.6711E4,4.7161E4,3.3067E4,1.8412E4,1.7455E4,2.9256E4,1.1974E4,3.5187E4,2.0211E4,1.2856E4,1.3826E4,4.586E3],"tree_param":{"num_deleted":"0","num_feature":"9","num_nodes":"15","size_leaf_vector":"1"}},{"base_weights":[1.6862322E4,1.5317037E4,1.9679799E4,1.3845921E4,1.6773791E4,1.8851502E4,2.2496271E4,1.2340399E2,1.4563965E2,1.4940918E2,1.739707E2,1.814374E2,2.0405379E2,2.169323E2,2.4487462E2],"categories":[],"categories_nodes":[],"categories_segments":[],"categories_sizes":[],"default_left":[1,0,1,0,0,1,0,0,0,0,0,0,0,0,0],"id":64,"left_children":[1,3,5,7,9,11,13,-1,-1,-1,-1,-1,-1,-1,-1],"loss_changes":[6.325346E11,2.0094281E11,1.1967188E11,5.0318017E10,5.3617885E10,4.338693E10,1.8167628E10,0E0,0E0,0E0,0E0,0E0,0E0,0E0,0E0],"parents":[2147483647,0,0,1,1,2,2,3,3,4,4,5,5,6,6],"right_children":[2,4,6,8,10,12,14,-1,-1,-1,-1,-1,-1,-1,-1],"split_conditions":[3.2949E4,2.9565E4,4.0791E4,2.4912E4,8E0,3.7248E4,4.7279E4,1.2340399E2,1.4563965E2,1.4940918E2,1.739707E2,1.814374E2,2.0405379E2,2.169323E2,2.4487462E2],"split_indices":[7,6,6,7,1,8,6,0,0,0,0,0,0,0,0],"split_type":[0,0,0,0,0,0,0,0,0,0,0,0,0,0,0],"sum_hessian":[1.45351E5,9.3872E4,5.1479E4,4.6711E4,4.7161E4,3.9786E4,1.1693E4,1.509E4,3.1621E4,1.1974E4,3.5187E4,2.7344E4,1.2442E4,8.341E3,3.352E3],"tree_param":{"num_deleted":"0","num_feature":"9","num_nodes":"15","size_leaf_vector":"1"}},{"base_weights":[1.6693709E4,1.5311744E4,1.979024E4,1.3432993E4,1.6421842E4,1.8994953E4,2.2586777E4,1.2022044E2,1.4210919E2,1.457604E2,1.6982666E2,1.7687297E2,1.9962627E2,1.9724562E2,2.3243997E2],"categories":[],"categories_nodes":[],"categories_segments":[],"categories_sizes":[],"default_left":[1,0,1,0,0,0,0,0,0,0,0,0,0,0,0],"id":65,"left_children":[1,3,5,7,9,11,13,-1,-1,-1,-1,-1,-1,-1,-1],"loss_changes":[6.217049E11,2.0939014E11,9.931902E10,4.0807432E10,6.514488E10,4.3839914E10,1.8211668E10,0E0,0E0,0E0,0E0,0E0,0E0,0E0,0E0],"parents":[2147483647,0,0,1,1,2,2,3,3,4,4,5,5,6,6],"right_children":[2,4,6,8,10,12,14,-1,-1,-1,-1,-1,-1,-1,-1],"split_conditions":[3.4118E4,2.8641E4,4.1459E4,2.4923E4,7E0,3.5623E4,1.72E2,1.2022044E2,1.4210919E2,1.457604E2,1.6982666E2,1.7687297E2,1.9962627E2,1.9724562E2,2.3243997E2],"split_indices":[6,7,7,8,1,8,0,0,0,0,0,0,0,0,0],"split_type":[0,0,0,0,0,0,0,0,0,0,0,0,0,0,0],"sum_hessian":[1.45351E5,1.00503E5,4.4848E4,3.7333E4,6.317E4,3.4924E4,9.924E3,1.3274E4,2.4059E4,1.4727E4,4.8443E4,1.4861E4,2.0063E4,1.859E3,8.065E3],"tree_param":{"num_deleted":"0","num_feature":"9","num_nodes":"15","size_leaf_vector":"1"}},{"base_weights":[1.6526781E4,1.4111746E4,1.826588E4,1.2471159E4,1.4964862E4,1.7249857E4,2.0770127E4,1.134961E2,1.3097375E2,1.4048203E2,1.5722359E2,1.4384386E2,1.7745815E2,1.9895654E2,2.3121815E2],"categories":[],"categories_nodes":[],"categories_segments":[],"categories_sizes":[],"default_left":[0,0,1,0,0,0,1,0,0,0,0,0,0,0,0],"id":66,"left_children":[1,3,5,7,9,11,13,-1,-1,-1,-1,-1,-1,-1,-1],"loss_changes":[6.102209E11,8.4987085E10,2.1463512E11,1.4477427E10,2.7575452E10,8.5177926E10,4.968363E10,0E0,0E0,0E0,0E0,0E0,0E0,0E0,0E0],"parents":[2147483647,0,0,1,1,2,2,3,3,4,4,5,5,6,6],"right_children":[2,4,6,8,10,12,14,-1,-1,-1,-1,-1,-1,-1,-1],"split_conditions":[3.0764E4,2.5567E4,3.7057E4,2.2804E4,2.9397E4,7E0,4.2565E4,1.134961E2,1.3097375E2,1.4048203E2,1.5722359E2,1.4384386E2,1.7745815E2,1.9895654E2,2.3121815E2],"split_indices":[6,6,7,6,8,1,8,0,0,0,0,0,0,0,0],"split_type":[0,0,0,0,0,0,0,0,0,0,0,0,0,0,0],"sum_hessian":[1.45351E5,6.0854E4,8.4497E4,2.0824E4,4.003E4,6.0115E4,2.4382E4,7.468E3,1.3356E4,1.8121E4,2.1909E4,8.874E3,5.1241E4,1.778E4,6.602E3],"tree_param":{"num_deleted":"0","num_feature":"9","num_nodes":"15","size_leaf_vector":"1"}},{"base_weights":[1.6361522E4,1.4856782E4,1.9105076E4,1.3441945E4,1.6284566E4,1.8239734E4,2.167327E4,1.21183105E2,1.4219424E2,1.4691774E2,1.6974953E2,1.741324E2,1.9379889E2,1.8523772E2,2.232945E2],"categories":[],"categories_nodes":[],"categories_segments":[],"categories_sizes":[],"default_left":[1,0,1,0,0,1,0,0,0,0,0,0,0,0,0],"id":67,"left_children":[1,3,5,7,9,11,13,-1,-1,-1,-1,-1,-1,-1,-1],"loss_changes":[5.997771E11,1.8941267E11,1.14013766E11,4.8355607E10,5.112437E10,3.5953574E10,2.6388464E10,0E0,0E0,0E0,0E0,0E0,0E0,0E0,0E0],"parents":[2147483647,0,0,1,1,2,2,3,3,4,4,5,5,6,6],"right_children":[2,4,6,8,10,12,14,-1,-1,-1,-1,-1,-1,-1,-1],"split_conditions":[3.2949E4,2.9624E4,3.9917E4,2.4966E4,9E0,3.5984E4,1.5E2,1.21183105E2,1.4219424E2,1.4691774E2,1.6974953E2,1.741324E2,1.9379889E2,1.8523772E2,2.232945E2],"split_indices":[7,6,8,6,1,6,0,0,0,0,0,0,0,0,0],"split_type":[0,0,0,0,0,0,0,0,0,0,0,0,0,0,0],"sum_hessian":[1.45351E5,9.3872E4,5.1479E4,4.7155E4,4.6717E4,3.8511E4,1.2968E4,1.7455E4,2.97E4,1.4133E4,3.2584E4,2.2336E4,1.6175E4,2.241E3,1.0727E4],"tree_param":{"num_deleted":"0","num_feature":"9","num_nodes":"15","size_leaf_vector":"1"}},{"base_weights":[1.6197916E4,1.4852859E4,1.921175E4,1.3026695E4,1.5931886E4,1.8475914E4,2.21072E4,1.1759707E2,1.3855058E2,1.4139565E2,1.647646E2,1.8153711E2,2.2095518E2,1.8645773E2,2.2677786E2],"categories":[],"categories_nodes":[],"categories_segments":[],"categories_sizes":[],"default_left":[1,0,0,0,0,1,0,0,0,0,0,0,0,0,0],"id":68,"left_children":[1,3,5,7,9,11,13,-1,-1,-1,-1,-1,-1,-1,-1],"loss_changes":[5.88939E11,1.9783274E11,9.514674E10,3.9020134E10,6.1424534E10,4.1311797E10,1.7516462E10,0E0,0E0,0E0,0E0,0E0,0E0,0E0,0E0],"parents":[2147483647,0,0,1,1,2,2,3,3,4,4,5,5,6,6],"right_children":[2,4,6,8,10,12,14,-1,-1,-1,-1,-1,-1,-1,-1],"split_conditions":[3.4118E4,2.8641E4,4.2788E4,2.5334E4,7E0,4.3901E4,1.65E2,1.1759707E2,1.3855058E2,1.4139565E2,1.647646E2,1.8153711E2,2.2095518E2,1.8645773E2,2.2677786E2],"split_indices":[6,7,6,8,1,8,0,0,0,0,0,0,0,0,0],"split_type":[0,0,0,0,0,0,0,0,0,0,0,0,0,0,0],"sum_hessian":[1.45351E5,1.00503E5,4.4848E4,3.7333E4,6.317E4,3.5766E4,9.082E3,1.4765E4,2.2568E4,1.4727E4,4.8443E4,3.2848E4,2.918E3,1.29E3,7.792E3],"tree_param":{"num_deleted":"0","num_feature":"9","num_nodes":"15","size_leaf_vector":"1"}},{"base_weights":[1.6035947E4,1.4601871E4,1.8814389E4,1.3179032E4,1.5994772E4,1.8033064E4,2.1549729E4,1.171408E2,1.3863821E2,1.4206389E2,1.6584845E2,1.6997583E2,1.9029858E2,1.8941205E2,2.2281558E2],"categories":[],"categories_nodes":[],"categories_segments":[],"categories_sizes":[],"default_left":[1,0,0,0,0,0,0,0,0,0,0,0,0,0,0],"id":69,"left_children":[1,3,5,7,9,11,13,-1,-1,-1,-1,-1,-1,-1,-1],"loss_changes":[5.7888106E11,1.8979855E11,1.0535777E11,4.7421325E10,5.08832E10,3.9407583E10,2.0554187E10,0E0,0E0,0E0,0E0,0E0,0E0,0E0,0E0],"parents":[2147483647,0,0,1,1,2,2,3,3,4,4,5,5,6,6],"right_children":[2,4,6,8,10,12,14,-1,-1,-1,-1,-1,-1,-1,-1],"split_conditions":[3.3205E4,2.9624E4,4.1459E4,2.4912E4,8E0,3.5707E4,1.72E2,1.171408E2,1.3863821E2,1.4206389E2,1.6584845E2,1.6997583E2,1.9029858E2,1.8941205E2,2.2281558E2],"split_indices":[7,6,7,7,1,8,0,0,0,0,0,0,0,0,0],"split_type":[0,0,0,0,0,0,0,0,0,0,0,0,0,0,0],"sum_hessian":[1.45351E5,9.5873E4,4.9478E4,4.7432E4,4.8441E4,3.8491E4,1.0987E4,1.5115E4,3.2317E4,1.2024E4,3.6417E4,1.8888E4,1.9603E4,2.413E3,8.574E3],"tree_param":{"num_deleted":"0","num_feature":"9","num_nodes":"15","size_leaf_vector":"1"}},{"base_weights":[1.5875597E4,1.4333277E4,1.8409668E4,1.2605132E4,1.5351523E4,1.7569945E4,2.1026041E4,1.129093E2,1.3322632E2,1.382834E2,1.5901926E2,1.5820757E2,1.8206595E2,1.8190826E2,2.1722498E2],"categories":[],"categories_nodes":[],"categories_segments":[],"categories_sizes":[],"default_left":[1,0,0,0,0,0,0,0,0,0,0,0,0,0,0],"id":70,"left_children":[1,3,5,7,9,11,13,-1,-1,-1,-1,-1,-1,-1,-1],"loss_changes":[5.678165E11,1.5881522E11,1.2044783E11,3.1445746E10,4.744492E10,4.6078624E10,2.5977422E10,0E0,0E0,0E0,0E0,0E0,0E0,0E0,0E0],"parents":[2147483647,0,0,1,1,2,2,3,3,4,4,5,5,6,6],"right_children":[2,4,6,8,10,12,14,-1,-1,-1,-1,-1,-1,-1,-1],"split_conditions":[3.2853E4,2.8145E4,4.0791E4,2.4599E4,7E0,3.2892E4,1.65E2,1.129093E2,1.3322632E2,1.382834E2,1.5901926E2,1.5820757E2,1.8206595E2,1.8190826E2,2.1722498E2],"split_indices":[6,7,6,8,1,8,0,0,0,0,0,0,0,0,0],"split_type":[0,0,0,0,0,0,0,0,0,0,0,0,0,0,0],"sum_hessian":[1.45351E5,9.0361E4,5.499E4,3.3507E4,5.6854E4,4.1635E4,1.3355E4,1.1839E4,2.1668E4,1.5098E4,4.1756E4,1.1117E4,3.0518E4,2.639E3,1.0716E4],"tree_param":{"num_deleted":"0","num_feature":"9","num_nodes":"15","size_leaf_vector":"1"}},{"base_weights":[1.571685E4,1.4308368E4,1.8445705E4,1.2912893E4,1.5674481E4,1.7591596E4,2.0877186E4,1.1237114E2,1.3494377E2,1.4123914E2,1.6330875E2,1.6880869E2,1.8765529E2,1.7809027E2,2.1513414E2],"categories":[],"categories_nodes":[],"categories_segments":[],"categories_sizes":[],"default_left":[1,0,1,0,0,1,0,0,0,0,0,0,0,0,0],"id":71,"left_children":[1,3,5,7,9,11,13,-1,-1,-1,-1,-1,-1,-1,-1],"loss_changes":[5.584045E11,1.8256757E11,1.023882E11,4.6068662E10,4.9073357E10,3.0239883E10,2.4714412E10,0E0,0E0,0E0,0E0,0E0,0E0,0E0,0E0],"parents":[2147483647,0,0,1,1,2,2,3,3,4,4,5,5,6,6],"right_children":[2,4,6,8,10,12,14,-1,-1,-1,-1,-1,-1,-1,-1],"split_conditions":[3.3205E4,2.9624E4,3.9917E4,2.3884E4,9E0,3.6673E4,1.5E2,1.1237114E2,1.3494377E2,1.4123914E2,1.6330875E2,1.6880869E2,1.8765529E2,1.7809027E2,2.1513414E2],"split_indices":[7,6,8,6,1,6,0,0,0,0,0,0,0,0,0],"split_type":[0,0,0,0,0,0,0,0,0,0,0,0,0,0,0],"sum_hessian":[1.45351E5,9.5873E4,4.9478E4,4.7432E4,4.8441E4,3.6622E4,1.2856E4,1.2224E4,3.5208E4,1.4414E4,3.4027E4,2.2821E4,1.3801E4,2.213E3,1.0643E4],"tree_param":{"num_deleted":"0","num_feature":"9","num_nodes":"15","size_leaf_vector":"1"}},{"base_weights":[1.5559689E4,1.4262732E4,1.846575E4,1.250574E4,1.5300887E4,1.7751979E4,2.12744E4,1.1277931E2,1.3308493E2,1.3572318E2,1.5826091E2,1.5715968E2,1.8294366E2,1.7914706E2,2.1828241E2],"categories":[],"categories_nodes":[],"categories_segments":[],"categories_sizes":[],"default_left":[1,0,0,0,0,0,0,0,0,0,0,0,0,0,0],"id":72,"left_children":[1,3,5,7,9,11,13,-1,-1,-1,-1,-1,-1,-1,-1],"loss_changes":[5.4757897E11,1.831296E11,8.953266E10,3.6647207E10,5.7135858E10,3.921045E10,1.6509829E10,0E0,0E0,0E0,0E0,0E0,0E0,0E0,0E0],"parents":[2147483647,0,0,1,1,2,2,3,3,4,4,5,5,6,6],"right_children":[2,4,6,8,10,12,14,-1,-1,-1,-1,-1,-1,-1,-1],"split_conditions":[3.4118E4,2.8641E4,4.2788E4,2.5334E4,7E0,3.2892E4,1.65E2,1.1277931E2,1.3308493E2,1.3572318E2,1.5826091E2,1.5715968E2,1.8294366E2,1.7914706E2,2.1828241E2],"split_indices":[6,7,6,8,1,8,0,0,0,0,0,0,0,0,0],"split_type":[0,0,0,0,0,0,0,0,0,0,0,0,0,0,0],"sum_hessian":[1.45351E5,1.00503E5,4.4848E4,3.7333E4,6.317E4,3.5766E4,9.082E3,1.4765E4,2.2568E4,1.4727E4,4.8443E4,7.53E3,2.8236E4,1.29E3,7.792E3],"tree_param":{"num_deleted":"0","num_feature":"9","num_nodes":"15","size_leaf_vector":"1"}},{"base_weights":[1.5404102E4,1.391303E4,1.7891373E4,1.2545006E4,1.5201136E4,1.6851775E4,1.9883162E4,1.1003362E2,1.3135463E2,1.3790143E2,1.5858095E2,1.6108963E2,1.7888394E2,1.9120518E2,2.2203976E2],"categories":[],"categories_nodes":[],"categories_segments":[],"categories_sizes":[],"default_left":[1,0,1,0,0,1,0,0,0,0,0,0,0,0,0],"id":73,"left_children":[1,3,5,7,9,11,13,-1,-1,-1,-1,-1,-1,-1,-1],"loss_changes":[5.3881497E11,1.5995293E11,1.1246292E11,3.9978533E10,4.316568E10,2.7277656E10,3.2630637E10,0E0,0E0,0E0,0E0,0E0,0E0,0E0,0E0],"parents":[2147483647,0,0,1,1,2,2,3,3,4,4,5,5,6,6],"right_children":[2,4,6,8,10,12,14,-1,-1,-1,-1,-1,-1,-1,-1],"split_conditions":[3.2594E4,2.9251E4,3.793E4,2.3884E4,9E0,3.5448E4,4.4224E4,1.1003362E2,1.3135463E2,1.3790143E2,1.5858095E2,1.6108963E2,1.7888394E2,1.9120518E2,2.2203976E2],"split_indices":[7,6,8,6,1,6,6,0,0,0,0,0,0,0,0],"split_type":[0,0,0,0,0,0,0,0,0,0,0,0,0,0,0],"sum_hessian":[1.45351E5,9.0878E4,5.4473E4,4.4077E4,4.6801E4,3.5798E4,1.8675E4,1.2212E4,3.1865E4,1.4875E4,3.1926E4,2.0864E4,1.4934E4,1.4063E4,4.612E3],"tree_param":{"num_deleted":"0","num_feature":"9","num_nodes":"15","size_leaf_vector":"1"}},{"base_weights":[1.5250069E4,1.3880134E4,1.7904246E4,1.2524616E4,1.520713E4,1.7148654E4,2.0549521E4,1.1115482E2,1.3183319E2,1.3496753E2,1.5771468E2,1.6155469E2,1.8104742E2,1.8029552E2,2.1256537E2],"categories":[],"categories_nodes":[],"categories_segments":[],"categories_sizes":[],"default_left":[1,0,0,0,0,0,0,0,0,0,0,0,0,0,0],"id":74,"left_children":[1,3,5,7,9,11,13,-1,-1,-1,-1,-1,-1,-1,-1],"loss_changes":[5.282621E11,1.7226426E11,9.854203E10,4.3880284E10,4.654524E10,3.625766E10,1.919366E10,0E0,0E0,0E0,0E0,0E0,0E0,0E0,0E0],"parents":[2147483647,0,0,1,1,2,2,3,3,4,4,5,5,6,6],"right_children":[2,4,6,8,10,12,14,-1,-1,-1,-1,-1,-1,-1,-1],"split_conditions":[3.3205E4,2.9624E4,4.1459E4,2.4912E4,8E0,3.5707E4,1.72E2,1.1115482E2,1.3183319E2,1.3496753E2,1.5771468E2,1.6155469E2,1.8104742E2,1.8029552E2,2.1256537E2],"split_indices":[7,6,7,7,1,8,0,0,0,0,0,0,0,0,0],"split_type":[0,0,0,0,0,0,0,0,0,0,0,0,0,0,0],"sum_hessian":[1.45351E5,9.5873E4,4.9478E4,4.7432E4,4.8441E4,3.8491E4,1.0987E4,1.5115E4,3.2317E4,1.2024E4,3.6417E4,1.8888E4,1.9603E4,2.413E3,8.574E3],"tree_param":{"num_deleted":"0","num_feature":"9","num_nodes":"15","size_leaf_vector":"1"}},{"base_weights":[1.5097577E4,1.3835299E4,1.7925934E4,1.2003114E4,1.4776029E4,1.7203309E4,2.0575E4,1.0821178E2,1.2766134E2,1.317817E2,1.5283412E2,1.6900023E2,2.068702E2,1.7357455E2,2.1134177E2],"categories":[],"categories_nodes":[],"categories_segments":[],"categories_sizes":[],"default_left":[1,0,0,0,0,1,0,0,0,0,0,0,0,0,0],"id":75,"left_children":[1,3,5,7,9,11,13,-1,-1,-1,-1,-1,-1,-1,-1],"loss_changes":[5.186865E11,1.7305069E11,8.550089E10,3.0616322E10,5.3632565E10,3.6886807E10,1.6917987E10,0E0,0E0,0E0,0E0,0E0,0E0,0E0,0E0],"parents":[2147483647,0,0,1,1,2,2,3,3,4,4,5,5,6,6],"right_children":[2,4,6,8,10,12,14,-1,-1,-1,-1,-1,-1,-1,-1],"split_conditions":[3.4118E4,2.8145E4,4.2509E4,2.5031E4,7E0,4.3901E4,1.65E2,1.0821178E2,1.2766134E2,1.317817E2,1.5283412E2,1.6900023E2,2.068702E2,1.7357455E2,2.1134177E2],"split_indices":[6,7,6,8,1,8,0,0,0,0,0,0,0,0,0],"split_type":[0,0,0,0,0,0,0,0,0,0,0,0,0,0,0],"sum_hessian":[1.45351E5,1.00503E5,4.4848E4,3.4101E4,6.6402E4,3.5242E4,9.606E3,1.3384E4,2.0717E4,1.601E4,5.0392E4,3.2425E4,2.817E3,1.427E3,8.179E3],"tree_param":{"num_deleted":"0","num_feature":"9","num_nodes":"15","size_leaf_vector":"1"}},{"base_weights":[1.494661E4,1.3496233E4,1.7366002E4,1.2167722E4,1.4747134E4,1.6351914E4,1.930892E4,1.06596436E2,1.2745328E2,1.337417E2,1.5386386E2,1.5652396E2,1.7393002E2,1.8465517E2,2.130488E2],"categories":[],"categories_nodes":[],"categories_segments":[],"categories_sizes":[],"default_left":[1,0,1,0,0,1,0,0,0,0,0,0,0,0,0],"id":76,"left_children":[1,3,5,7,9,11,13,-1,-1,-1,-1,-1,-1,-1,-1],"loss_changes":[5.0980717E11,1.5084605E11,1.0701242E11,3.825887E10,4.0871395E10,2.5799164E10,3.1045714E10,0E0,0E0,0E0,0E0,0E0,0E0,0E0,0E0],"parents":[2147483647,0,0,1,1,2,2,3,3,4,4,5,5,6,6],"right_children":[2,4,6,8,10,12,14,-1,-1,-1,-1,-1,-1,-1,-1],"split_conditions":[3.2594E4,2.9251E4,3.793E4,2.3884E4,9E0,3.5618E4,4.3162E4,1.06596436E2,1.2745328E2,1.337417E2,1.5386386E2,1.5652396E2,1.7393002E2,1.8465517E2,2.130488E2],"split_indices":[7,6,8,6,1,6,7,0,0,0,0,0,0,0,0],"split_type":[0,0,0,0,0,0,0,0,0,0,0,0,0,0,0],"sum_hessian":[1.45351E5,9.0878E4,5.4473E4,4.4077E4,4.6801E4,3.5798E4,1.8675E4,1.2212E4,3.1865E4,1.4875E4,3.1926E4,2.1421E4,1.4377E4,1.3135E4,5.54E3],"tree_param":{"num_deleted":"0","num_feature":"9","num_nodes":"15","size_leaf_vector":"1"}},{"base_weights":[1.4797153E4,1.2625634E4,1.6381877E4,1.113942E4,1.3416914E4,1.5535199E4,1.8899309E4,1.0162173E2,1.1740481E2,1.2900848E2,1.4516179E2,1.313239E2,1.605129E2,1.8123567E2,2.116485E2],"categories":[],"categories_nodes":[],"categories_segments":[],"categories_sizes":[],"default_left":[0,0,1,1,1,0,1,0,0,0,0,0,0,0,0],"id":77,"left_children":[1,3,5,7,9,11,13,-1,-1,-1,-1,-1,-1,-1,-1],"loss_changes":[4.999883E11,7.197216E10,1.7880318E11,1.2399673E10,2.2512927E10,7.776869E10,3.677461E10,0E0,0E0,0E0,0E0,0E0,0E0,0E0,0E0],"parents":[2147483647,0,0,1,1,2,2,3,3,4,4,5,5,6,6],"right_children":[2,4,6,8,10,12,14,-1,-1,-1,-1,-1,-1,-1,-1],"split_conditions":[3.0812E4,2.6625E4,3.7858E4,2.3582E4,3.0702E4,8E0,4.3561E4,1.0162173E2,1.1740481E2,1.2900848E2,1.4516179E2,1.313239E2,1.605129E2,1.8123567E2,2.116485E2],"split_indices":[6,8,7,7,8,1,8,0,0,0,0,0,0,0,0],"split_type":[0,0,0,0,0,0,0,0,0,0,0,0,0,0,0],"sum_hessian":[1.45351E5,6.1326E4,8.4025E4,2.1312E4,4.0014E4,6.2883E4,2.1142E4,8.123E3,1.3189E4,2.7239E4,1.2775E4,1.1123E4,5.176E4,1.5756E4,5.386E3],"tree_param":{"num_deleted":"0","num_feature":"9","num_nodes":"15","size_leaf_vector":"1"}},{"base_weights":[1.4649189E4,1.3327549E4,1.7209797E4,1.2024315E4,1.4603362E4,1.6478791E4,1.9769014E4,1.06741394E2,1.2671401E2,1.2746584E2,1.5086586E2,1.5514459E2,1.740711E2,1.7313078E2,2.0458095E2],"categories":[],"categories_nodes":[],"categories_segments":[],"categories_sizes":[],"default_left":[1,0,0,0,0,0,0,0,0,0,0,0,0,0,0],"id":78,"left_children":[1,3,5,7,9,11,13,-1,-1,-1,-1,-1,-1,-1,-1],"loss_changes":[4.91671E11,1.5923256E11,9.2240085E10,4.130603E10,4.3271586E10,3.4187772E10,1.8241028E10,0E0,0E0,0E0,0E0,0E0,0E0,0E0,0E0],"parents":[2147483647,0,0,1,1,2,2,3,3,4,4,5,5,6,6],"right_children":[2,4,6,8,10,12,14,-1,-1,-1,-1,-1,-1,-1,-1],"split_conditions":[3.3205E4,2.9624E4,4.1459E4,2.4541E4,7E0,3.5707E4,1.72E2,1.06741394E2,1.2671401E2,1.2746584E2,1.5086586E2,1.5514459E2,1.740711E2,1.7313078E2,2.0458095E2],"split_indices":[7,6,7,6,1,8,0,0,0,0,0,0,0,0,0],"split_type":[0,0,0,0,0,0,0,0,0,0,0,0,0,0,0],"sum_hessian":[1.45351E5,9.5873E4,4.9478E4,4.7432E4,4.8441E4,3.8491E4,1.0987E4,1.5373E4,3.2059E4,1.0009E4,3.8432E4,1.8888E4,1.9603E4,2.413E3,8.574E3],"tree_param":{"num_deleted":"0","num_feature":"9","num_nodes":"15","size_leaf_vector":"1"}},{"base_weights":[1.4502706E4,1.3336099E4,1.735581E4,1.1376571E4,1.417196E4,1.6732652E4,2.0250629E4,1.0361466E2,1.2103369E2,1.2931631E2,1.4834239E2,1.639848E2,1.99739E2,2.076944E2,1.6774855E2],"categories":[],"categories_nodes":[],"categories_segments":[],"categories_sizes":[],"default_left":[1,0,0,1,0,1,0,0,0,0,0,0,0,0,0],"id":79,"left_children":[1,3,5,7,9,11,13,-1,-1,-1,-1,-1,-1,-1,-1],"loss_changes":[4.835634E11,1.6882493E11,7.575228E10,2.2638494E10,5.9213087E10,3.727373E10,1.3116375E10,0E0,0E0,0E0,0E0,0E0,0E0,0E0,0E0],"parents":[2147483647,0,0,1,1,2,2,3,3,4,4,5,5,6,6],"right_children":[2,4,6,8,10,12,14,-1,-1,-1,-1,-1,-1,-1,-1],"split_conditions":[3.4485E4,2.8123E4,4.3846E4,2.4809E4,9E0,4.3901E4,2.34E2,1.0361466E2,1.2103369E2,1.2931631E2,1.4834239E2,1.639848E2,1.99739E2,2.076944E2,1.6774855E2],"split_indices":[6,8,6,7,1,8,0,0,0,0,0,0,0,0,0],"split_type":[0,0,0,0,0,0,0,0,0,0,0,0,0,0,0],"sum_hessian":[1.45351E5,1.03171E5,4.218E4,3.0854E4,7.2317E4,3.4714E4,7.466E3,1.288E4,1.7974E4,2.518E4,4.7137E4,3.1475E4,3.239E3,6.492E3,9.74E2],"tree_param":{"num_deleted":"0","num_feature":"9","num_nodes":"15","size_leaf_vector":"1"}},{"base_weights":[1.4357688E4,1.305912E4,1.6873596E4,1.17804375E4,1.4310898E4,1.6155117E4,1.9388955E4,1.05768074E2,1.2481545E2,1.2487893E2,1.4785333E2,1.5206847E2,1.7067978E2,1.6972212E2,2.0067047E2],"categories":[],"categories_nodes":[],"categories_segments":[],"categories_sizes":[],"default_left":[1,0,0,0,0,0,0,0,0,0,0,0,0,0,0],"id":80,"left_children":[1,3,5,7,9,11,13,-1,-1,-1,-1,-1,-1,-1,-1],"loss_changes":[4.746568E11,1.5329133E11,8.910589E10,3.989517E10,4.1712353E10,3.3060553E10,1.7666146E10,0E0,0E0,0E0,0E0,0E0,0E0,0E0,0E0],"parents":[2147483647,0,0,1,1,2,2,3,3,4,4,5,5,6,6],"right_children":[2,4,6,8,10,12,14,-1,-1,-1,-1,-1,-1,-1,-1],"split_conditions":[3.3205E4,2.9624E4,4.1459E4,2.4966E4,7E0,3.5707E4,1.72E2,1.05768074E2,1.2481545E2,1.2487893E2,1.4785333E2,1.5206847E2,1.7067978E2,1.6972212E2,2.0067047E2],"split_indices":[7,6,7,6,1,8,0,0,0,0,0,0,0,0,0],"split_type":[0,0,0,0,0,0,0,0,0,0,0,0,0,0,0],"sum_hessian":[1.45351E5,9.5873E4,4.9478E4,4.7432E4,4.8441E4,3.8491E4,1.0987E4,1.7465E4,2.9967E4,1.0009E4,3.8432E4,1.8888E4,1.9603E4,2.413E3,8.574E3],"tree_param":{"num_deleted":"0","num_feature":"9","num_nodes":"15","size_leaf_vector":"1"}},{"base_weights":[1.4214119E4,1.3068523E4,1.7015836E4,1.1480731E4,1.4064395E4,1.640218E4,1.9866514E4,1.0407716E2,1.22996376E2,1.2352861E2,1.4553871E2,1.6073428E2,1.959088E2,2.0379013E2,1.6433142E2],"categories":[],"categories_nodes":[],"categories_segments":[],"categories_sizes":[],"default_left":[1,0,0,0,0,1,0,0,0,0,0,0,0,0,0],"id":81,"left_children":[1,3,5,7,9,11,13,-1,-1,-1,-1,-1,-1,-1,-1],"loss_changes":[4.6630594E11,1.6297807E11,7.346219E10,3.4820588E10,5.2933165E10,3.6076257E10,1.2803899E10,0E0,0E0,0E0,0E0,0E0,0E0,0E0,0E0],"parents":[2147483647,0,0,1,1,2,2,3,3,4,4,5,5,6,6],"right_children":[2,4,6,8,10,12,14,-1,-1,-1,-1,-1,-1,-1,-1],"split_conditions":[3.4485E4,2.8978E4,4.3846E4,2.5934E4,7E0,4.3901E4,2.34E2,1.0407716E2,1.22996376E2,1.2352861E2,1.4553871E2,1.6073428E2,1.959088E2,2.0379013E2,1.6433142E2],"split_indices":[6,7,6,8,1,8,0,0,0,0,0,0,0,0,0],"split_type":[0,0,0,0,0,0,0,0,0,0,0,0,0,0,0],"sum_hessian":[1.45351E5,1.03171E5,4.218E4,3.9772E4,6.3399E4,3.4714E4,7.466E3,1.7221E4,2.2551E4,1.4105E4,4.9294E4,3.1475E4,3.239E3,6.492E3,9.74E2],"tree_param":{"num_deleted":"0","num_feature":"9","num_nodes":"15","size_leaf_vector":"1"}},